tree
version=v4
num_class=1
num_tree_per_iteration=1
label_index=0
max_feature_idx=68
feature_names=race_number race_type purse course surface breed weight age jockey trainer last_race_number last_race_finish track_code dollar_odds num_past_starts num_past_wins num_past_seconds num_past_thirds temperature best_prior_figure avg_prior_figure avg_last3_figure last_figure num_prior_races figure_trend figure_trend_3race best_surface_figure avg_surface_figure best_dist_figure figure_consistency peak_vs_recent furlongs win_rate class_level running_style pace_pressure pace_pressure_pct style_advantage avg_early_pos avg_late_gain avg_margin_finish best_finish_margin avg_trouble_rate avg_wide_rate class_change distance_change num_horses_in_race days_since_last_race layoff_category distance_furlongs standard_condition post_position_normalized is_inside_post is_outside_post itm_rate win_rate_category experience_category age_category is_female is_gelding is_restricted_sex_race jockey_trainer jockey_win_rate jockey_itm_rate trainer_win_rate trainer_itm_rate jockey_trainer_win_rate jockey_trainer_itm_rate jt_strength
feature_infos=[1:19] -1:3:7:8:0:1:12:13:14:17:6:18:19:9:5:15:11:16 [250:12000000] -1:0:5:2:4:3 -1:0:1 none [104:156] [2:6] -1:50:32:48:49:16:10:39:6:25:33:41:43:3:46:7:42:19:4:8:1:23:14:12:2:21:5:15:35:31:34:36:11:18:47:45:28:17:0:38:24:37:9:26:20:22:44:40:13:30:27 -1:50:49:41:23:28:34:46:14:47:16:31:18:39:2:15:27:1:4:33:48:35:17:3:7:5:30:24:36:42:6:29:12:32:44:38:22:20:45:10:9:43:8:26:19:25:11:13:21:40:37 [1:18] [1:15] -1:21:39:9:36:30:20:32:41:18:10:25:44:47:45:40:17:7:34:15:37:5:35:4:2:29:33:46:38:11:6:1:14:23:12:43:31:28:42:22:48:27:24:19:0:13:3:26:8 [0:295] [0:97] [0:23] [0:23] [0:23] [0:802] [2.7000000000000002:146.90000000000001] [2.2000000000000002:144.80000000000001] [0.5:144.80000000000001] [0.29999999999999999:147.59999999999999] [0:97] [-463.5:482.89999999999998] [-239.80000000000001:233.59999999999999] [2.7000000000000002:146.90000000000001] [1.5:144.80000000000001] [4.5:146.90000000000001] [0:275.19999999999999] [0:375.39999999999998] [0.90909090909090917:16] [0:1] [1:6] -1:3:2:0:4:1 [0:12] [0:1] [-1:0.91700000000000004] [0.071400000000000005:5] [-13:11] [0:156.38] [0:114] [0:1] [0:1] [-16252000:11500000] [-10.5:8] [2:19] [2:2439] -1:1:2:3:4:5:0 [0.90909090909090906:1600] -1:0:1:3:6:5:9:10:8:2:7 [0:10] [0:1] [0:1] [0:1] -1:0:1:2:3 -1:0:1:2:3 -1:1:0:2:4 [0:1] [0:1] [0:1] -1:50:38:5:37:27:33:28:44:11:43:7:3:0:19:20:35:13:9:39:42:31:8:23:26:10:49:22:46:36:14:41:2:34:17:6:1:21:12:45:48:47:24:40:4:30:15:18:25:29 [0:0.33974358974358976] [0:0.67307692307692313] [0:0.5] [0:0.75] [0:0.72727272727272729] [0:1] -1:2:4:1:0:3
tree_sizes=17276 17357 17359 17289 17331 17208 17448 17503 16994 17417 17516 17337 17418 16979 17331 17430 17009 17382 17320 17339 17359 17170 17342 17198 17389 17420 17316 17434 16940 17521 16984 17068 16952 17102 17170 17501 17481 16829 17060 17132 17330 17412 17264 17527 17345 17270 17341 17285 17179 17409 17132 17182 17314 17147 17237 16970 16959 17295 17336 17380 17390 17243 17044 17300 17122 16108 17117 17130 17432 17556 17156 17121 17144 17164 17385 17456 16590 16497 16753 16854 17180 17176 17227 17365 17274 14936 17398 17095 14545 15706 17098 17032 17563 17054 17008 17298 15400 17041 17156 15448 14950 15023 15282 17143 15203 17191 15130 17079 14971 17253 15054 15178 15064 17287 15166 17409 17456 15348 15734 15897 15671 15568 17099 15830 15956 15342 15237 17397 17147 14785 15009 16752 17355 14930 16977 17013 17341 17232 15219 15363 15389 17098 17034 15329 15186 14612 17263 17109 14897 14824 15196 14623 17192 15101 15090 17011 14048 17251 16945 14392 17223 17179 14619 17227 16946 17009 14307 14392 17119 17284 13678 16896 14846 14989 16955 14580 15365 13747 15133 17110 12865 15005 16879 16318 15114 14931 14713 17209 17081 16796 17080 16780 14078 14535 14226 15041 14507 14941 14614 14430 13726 13426 13634 15457 14357 14523

Tree=0
num_leaves=155
num_cat=14
split_feature=13 13 13 66 66 46 46 13 13 66 46 13 66 13 66 46 66 13 66 13 46 46 46 13 46 66 13 46 66 13 66 13 46 46 13 46 66 46 46 66 46 66 66 46 46 64 46 46 46 66 46 66 66 13 66 66 46 66 66 67 13 66 67 63 64 66 66 66 64 64 64 64 64 66 46 46 13 66 46 46 67 66 66 66 66 46 66 46 46 67 64 64 66 13 46 64 8 64 66 64 46 66 64 67 66 66 64 66 64 46 66 66 8 67 46 46 46 67 8 12 12 64 67 46 12 12 66 8 12 67 66 13 67 12 13 12 12 64 12 67 66 13 46 66 64 46 63 12 66 63 66 66 13 46
split_gain=106892 19797.7 15407.2 3662.8 3582.22 3540.22 2806.54 2324.75 1521.47 1379.12 1353.85 1326.65 1038.41 1028.96 1027.73 955.115 830.717 820.52 709.435 705.3 688.33 555.857 518.243 515.516 421.217 387.338 353.754 348.813 348.112 340.195 322.412 309.842 302.354 276.906 241.717 184.93 182.559 175.329 160.762 160.303 155.507 155.351 131.823 130.17 129.678 127.813 122.138 120.062 118.499 118.096 103.536 102.252 101.894 101.828 99.3874 95.7813 93.9714 93.117 91.5363 90.7183 88.0558 88.0536 94.6635 82.5016 80.9136 79.2442 78.9187 78.7982 77.763 77.4095 77.1583 75.958 73.96 71.6056 71.236 69.9598 69.8352 68.7951 68.5766 67.6947 66.0891 65.1378 63.1372 62.4368 62.0483 61.0521 60.9498 60.5485 60.3216 59.3385 58.7879 57.7167 56.9146 59.185 56.8767 55.5069 54.3739 53.3152 53.2828 52.685 52.5379 52.3709 51.03 50.3079 48.2403 45.4603 45.4058 45.3648 46.6512 44.9305 42.6692 42.2433 40.2879 39.252 38.7873 38.5562 38.4876 37.6367 36.9096 36.4728 35.9829 33.5927 33.2813 33.0414 32.5556 31.9615 31.6334 30.7416 30.2779 29.6595 29.071 28.7198 28.6101 27.1005 26.8444 26.1993 24.7643 24.7376 23.9383 23.6697 23.0461 22.4326 21.7523 21.546 20.4591 20.0293 19.9245 19.7732 19.4839 18.7911 18.5647 18.0288 17.7314 17.4528
threshold=3.5000000000000004 1.5000000000000002 9.5000000000000018 0.1347671908726488 0.11443452380952382 7.5000000000000009 7.5000000000000009 1.0000000180025095e-35 17.500000000000004 0.038610614192009549 7.5000000000000009 1.0000000180025095e-35 0.1412253544076911 2.5000000000000004 0.01941930618401207 7.5000000000000009 0.12480031948881791 5.5000000000000009 0.095119047619047631 2.5000000000000004 5.5000000000000009 9.5000000000000018 7.5000000000000009 5.5000000000000009 5.5000000000000009 0.033615819209039555 2.5000000000000004 9.5000000000000018 0.08314132104454687 6.5000000000000009 0.043636940653760718 2.5000000000000004 6.5000000000000009 7.5000000000000009 5.5000000000000009 8.5000000000000018 0.040678433535576396 9.5000000000000018 5.5000000000000009 0.22045127423588182 6.5000000000000009 0.26327537593984968 0.23543552036199097 6.5000000000000009 7.5000000000000009 0.16716286994767601 6.5000000000000009 5.5000000000000009 9.5000000000000018 0.25964112223654212 9.5000000000000018 0.24563584695016749 0.2178852500634679 29.500000000000004 0.21735938198301732 1.0000000180025095e-35 8.5000000000000018 0.2141604010025063 0.093080255357957151 0.4155386866654473 4.5000000000000009 0.28003294892915986 0.4108203257550051 0.41815605858167298 0.16291228706052921 0.080178571428571446 0.12515060240963857 0.22673539518900346 0.12016809629219703 0.22249005803084174 0.16291228706052921 0.10637676113259635 0.18770320344250541 0.21956918167312517 8.5000000000000018 9.5000000000000018 7.5000000000000009 0.3227076454152909 6.5000000000000009 6.5000000000000009 0.47235706580366782 0.25869630973986696 0.062895569620253181 0.24974437627811866 0.27290982110259226 10.500000000000002 0.071175278622087154 9.5000000000000018 8.5000000000000018 0.42830086580086585 0.15247112222055723 0.17822690182439319 0.027149877149877152 27.500000000000004 9.5000000000000018 0.11234117113695123 0 0.18307439543453555 0.080178571428571446 0.10906673114119923 6.5000000000000009 0.23949017297702566 0.13777634037659914 0.4155386866654473 0.26536911060720592 0.34514106583072107 0.087698511682048744 0.18762755102040821 0.094472020566217743 10.500000000000002 0.087129054520358878 0.15282200990799719 1 0.34391801075268824 7.5000000000000009 3.5000000000000004 4.5000000000000009 0.4601265183889095 2 3 4 0.13383054230897198 0.40316329082270569 9.5000000000000018 5 6 0.38972696085342362 7 8 0.52011560693641623 0.08314132104454687 11.500000000000002 0.4155386866654473 9 13.500000000000002 10 11 0.16291228706052921 12 0.32158385093167707 0.02339261285909713 11.500000000000002 7.5000000000000009 0.27151675485008825 0.21518058730938802 6.5000000000000009 0.45230610466306903 13 0.36873433583959908 0.56283135284947872 0.074179894179894193 0.15992388201712657 54.500000000000007 8.5000000000000018
decision_type=8 10 8 10 10 2 2 10 10 8 2 10 10 10 8 2 10 10 10 10 2 2 2 10 2 8 10 2 10 10 8 10 2 2 10 2 8 2 2 10 2 10 10 2 2 10 2 2 2 10 2 10 10 10 10 10 2 10 8 10 10 10 10 10 10 8 8 10 10 10 10 10 10 10 2 2 10 10 2 2 10 10 8 10 10 2 8 2 2 10 10 10 8 10 2 10 9 10 8 10 2 10 10 10 10 10 10 10 10 2 10 10 9 10 2 2 2 10 9 9 9 10 10 2 9 9 10 9 9 10 10 8 10 9 8 9 9 10 9 10 10 8 2 10 10 2 10 9 10 10 10 10 10 2
left_child=1 5 4 9 14 7 19 24 18 55 23 66 25 27 -2 31 30 37 36 32 116 39 34 40 98 -9 50 49 92 60 140 47 42 104 82 121 -4 54 129 88 73 48 64 81 145 -44 84 132 76 63 86 85 106 56 89 -3 151 99 -26 87 119 62 -29 -8 -5 -40 -7 122 101 -51 -56 -50 136 90 135 -68 -19 107 124 -60 -75 -22 -16 96 117 -37 -17 -32 -18 -12 -6 -85 -10 114 -62 -45 -48 -53 -1 111 -84 -39 -54 -49 131 120 -34 113 -109 -23 -76 -35 -70 -25 -94 -100 -14 -21 -69 -24 -59 146 -42 150 -33 -74 -41 -52 -80 -27 -36 -20 -11 -79 -101 -28 -43 147 -125 -132 -13 -46 -55 -58 -86 -38 -15 -106 -123 -63 -31 -30 -144 -95
right_child=2 3 8 6 10 11 13 12 28 15 17 16 20 35 22 26 21 41 33 46 43 109 29 77 58 38 74 61 53 123 59 78 52 57 130 51 44 68 65 126 67 72 45 95 141 -47 83 103 71 69 127 97 102 142 70 -57 143 105 79 -61 94 149 -64 -65 -66 -67 75 118 112 -71 -72 -73 125 80 110 -77 -78 133 128 -81 -82 -83 100 91 144 -87 -88 -89 -90 -91 -92 -93 93 153 -96 -97 -98 -99 115 134 -102 -103 -104 -105 137 -107 -108 108 -110 -111 -112 -113 -114 -115 -116 -117 -118 -119 -120 -121 -122 148 -124 138 -126 -127 -128 -129 -130 -131 139 -133 -134 -135 -136 -137 -138 -139 -140 -141 -142 -143 152 -145 -146 -147 -148 -149 -150 -151 -152 -153 -154 -155
leaf_value=0.0023290619503031364 -0.011643512710912293 -0.011710507064903104 -0.010971241365845867 0.0099996656147569689 0.00090655740840503137 0.032222731710930291 0.020803844667686092 -0.0095873033242733809 -0.011439333800431318 0.0029101798024580489 0.0071746186180437939 -0.0098012274686247632 0.012044536480674379 0.016420238827525323 -0.0061631727019198597 0.0041237067231721502 0.025775415855757614 0.001434483092785499 -0.0054371961201654809 0.0060586907202159158 0.02053211933922448 0.03998922550954883 0.00056093758852382208 0 0.018261190645109275 0.0096855269628654782 0.005865131647329918 0.035595348389733363 -0.0089336947960661287 -0.0049771392612207675 0.023138168350579049 0.0010640821495339272 0.025026601715200079 -0.0030774019026295878 -0.0064939705187865128 0.012294267904655197 -0.0093593019822205189 0.013240179639021321 0.0087802494004060941 0.034041921070010979 0.0051278853911624032 0.013798509240112335 0.018839611867358948 0.035035295846017105 -0.0053575442569988706 0.010556082853701012 0.0076868254255684169 0.0071941882479904318 0.008670037446494255 0.026806835209466067 0.0011276617741334631 0.026189789515732909 0.025398383539621715 -0.010231724959480501 0.013197267946566645 -0.0028389463389898069 -0.0061606835140648056 -0.0028935870550550274 0.034667125335236484 0.014855880548440375 -0.0016301690451560966 0.034200961684408414 0.023276206497259328 0.01608189175227278 0.0063198099326947626 0.016537833766541735 0.050226412921803174 0 0.0035327283275925613 0.018926170072531681 0.0068250309584944801 0.0025504830213502741 0 0.010395987320186548 0.0066030170279792223 0.065073016849859833 -0.0013663090973611547 0.0078170326184067856 0.00024001149285268958 0.041312482902939686 0.0016771929028749212 0.02501855378955764 -0.0033911817941210654 0.018412184758613642 0.010611820503392939 0.018113807079182358 0.011971972953353631 0.032001870153901539 0.032288566592677807 0.0036734503264411176 -0.0020125866925968378 0.0089971104139515562 -0.010143898424115434 -0.010903343017498847 0.0012191588670469203 0.025524868401982318 0.0011522189803291273 0.017092345284515528 0.013314120505671155 -0.0037166585724592543 -0.00092925913041051766 0.031151603832959188 0.015900085146269796 0.0036576146910215512 -0.0025436499344345664 0.0079369287159467058 0.01179770141210728 0.0054579491085717923 -0.0016836803146704537 0.047690322495333927 0.011031982303091726 0.0009452738759754552 0.009447505107785489 -0.003492658043773056 -0.0084615944657871096 0.026870873219645125 0.01652736685604517 0.0028280260206233099 0.0071015046549925001 0.0034301244503819523 0.00048938853963354 0.0086821294188735437 0.0017702184368803549 0.00062437827071723767 -0.0017462146310666072 0.0057363963400120172 0.047100407969793097 0.017321925918420703 0.003887128699612879 0 -0.0023310511452968473 -0.0070754253028225801 -0.0014682251078747478 0 -0.005531558951811651 0.0018079390466871541 0.0047885794097463439 -0.0044537725674206651 -0.0028884777448926814 -0.0054722823650339841 0.0038594485360632326 -0.0068998828763124831 -0.0082836501912557144 -0.0010310566785347028 0.0053153331322536293 -0.0078904522138724103 0.0084902852624376239 0.0047493163616037642 0.020371331840936084 0.014394205505030561 -0.0028876054599575821 -0.0074028438235294505 -0.0098254174299658142 -0.010015066066204446
leaf_weight=13.759722009301184 1561.7326679825783 474.40565641224384 1907.5443577691913 1293.2986416518688 1415.8078153133392 30.872084744274616 673.43132907152176 71.954649806022644 4142.9847636334598 577.61971211433411 744.85629081726074 27.165944524109364 342.54861146211624 143.390625 528.73252153396606 127.89756977558136 579.6875 2167.8971902132034 2029.3723065853119 528.20168000459671 1343.6111751794815 375.48001492023468 931.68512320518494 376.35716696083546 34.914967119693756 522.60582467913628 446.796875 85.276328407227993 2898.805689573288 1694.5457228422165 434.27893632650375 714.0450177937746 33.061224818229675 1039.358624920249 4246.7087884396315 974.88940298557281 2818.500079959631 273.02260722219944 176.86905294656754 817.37442356348038 392.44898349046707 146.74284327030182 251.26278378069401 91.836735606193542 1719.2182628549635 1079.9836359918118 1044.4898062944412 1954.4762481451035 241.45485121384263 325.54668301343918 30.936298049986362 116.71817389130592 79.346939563751221 1985.5443980395794 276.56520140171051 185.47464314848185 2813.4822151847184 619.25611228123307 549.72224843502045 123.11258758604527 2110.6740032434464 172.73690485954285 790.62986080348492 1291.9355745911598 1334.3858637660742 1291.3639852404594 281.68846517801285 84.000000834465027 199.48958823084831 306.65258580446243 874.94888383150101 1808.4619324542582 154.46878357231617 99.220558151602745 680.44943822175264 64.823086559772491 1536.7264708280563 78.164162516593933 387.67347323894501 388.53061610460281 1074.0825271010399 612.91669589281082 2190.1120012849569 106.40816432237625 202.31111581623554 279.01359610259533 1228.8690234422684 139.50371802598238 306.46913808584213 1760.3354604244232 1361.0980903208256 280.89796197414398 3024.8763933181763 6685.6726635247469 1053.7822471261024 1568.4489951729774 183.9183691740036 318.92551209777594 35.611111328005791 2467.0132434926927 1562.081648170948 22.088167361915112 924.12245815992355 586.50795412063599 64.902648523449898 56.900283873081207 1253.632665514946 93.524633437395096 2621.0123685449362 219.21102791279554 411.60329750925303 335.43263243883848 1348.2572672367096 3480.7284504622221 3711.2096222117543 522.89999136328697 1072.9599760174751 1570.2130946516991 650.4489860534668 970.44557091593742 609.5240285769105 967.3125 1661.6326695680618 219.22156693786383 949.95141267776489 262.29995033144951 37.790895164012909 493.11952857673168 726.36735415458679 37.200277179479599 371.48746180534363 3543.1305268108845 190.4952744692564 92.687065377831459 1518.8986041918397 356.890625 110.47640672326088 233.63101913034916 1075.6862071678042 1207.5605620145798 17.697286337614059 3822.4373991563916 3386.5887300632894 106.21673806011677 191.88361579179764 2359.224513232708 78.421875 61.238980710506439 20.453125 12.90949723869562 741.50251001119614 1731.1779964417219 1565.4735397733748 6799.9270859919488
leaf_count=82 13662 4008 16937 8737 9664 303 6409 520 39212 3485 7105 271 1775 1311 3891 1213 5300 20687 15089 3590 9674 4172 9509 2800 265 3129 4085 997 23279 16185 4121 4843 270 10709 31486 10268 19334 3194 1353 7772 3205 1523 1700 750 17756 7287 8530 14982 2824 3097 362 1276 648 15151 2632 1562 31362 6411 3958 1226 20132 2017 9241 12287 8996 9859 2664 686 2351 2926 8350 21319 1589 678 7442 748 14680 568 3166 3173 7258 4413 14921 869 1364 3510 11681 1618 3103 16777 9236 2294 22727 55218 12350 12809 1502 3508 157 25705 12757 258 7547 4488 470 593 10238 693 19384 2749 4508 3458 15839 25755 38579 3143 6706 10636 5312 9916 6427 8844 13570 2533 6457 2736 359 5751 5932 222 2772 26364 1148 681 15846 3263 1125 1727 12663 8913 177 39622 35858 1187 1297 19267 717 462 187 147 7082 13887 17139 76426
internal_value=2.57973e-06 0.0141903 -0.00510413 0.009453 -0.000649817 0.0249003 0.0123556 0.0214554 -0.00829345 0.00478333 0.00187367 0.03354 0.0190157 0.0175156 -0.00378492 0.00572858 0.0313202 0.00434425 -0.00636221 0.00908418 0.0215101 0.0342998 -0.00313344 -0.000309116 0.0326873 0.013018 0.00971127 0.0210837 -0.00954526 -0.00134017 0.0218792 0.00325066 0.0112215 -0.00466204 -0.00469021 0.0129975 -0.0080525 0.00720158 0.0138411 0.0313383 0.00165631 0.00189319 0.00950448 0.0238612 -0.00752913 0.0121516 0.00582271 0.00533378 0.00134827 0.0190352 0.0128287 0.0151967 0.0141711 -0.00829425 0.00589599 -0.00928153 -0.00745502 -0.00323761 0.0368193 0.0235717 0.0003509 0.026056 0.0245243 0.0177216 0.00814719 0.0156324 0.05153 0.00347821 0.0097691 0.0230517 0.0083925 0.00329208 0.00648255 0.000359411 0.00659593 0.053127 0.000261175 -0.00227978 0.000753978 0.0374644 0.00245083 0.0219594 -0.00285512 0.00801098 0.00438716 0.0136232 0.0112636 0.0253675 0.0280761 0.00473145 -0.000508914 0.0116939 -0.0102874 -0.0100492 -0.000667861 0.0260766 0.0068151 0.0196276 0.0255861 -0.00382319 -0.00237761 0.0147253 0.0166936 0.00639465 -0.00625076 -0.000762845 0.0121708 -0.00244775 -0.00142193 0.0428997 0.00831136 -0.00206492 0.00879655 -0.00315865 -0.00922337 0.0260828 0.0154727 0.00366154 0.00634487 0.00206815 -0.00120039 0.0098904 0.00243248 -0.00364803 -0.000518767 0.00370514 0.0346689 0.0167993 0.00269327 0.00906678 -0.00603137 -0.00648647 0.00176884 0.00393171 -0.00441895 0.00421197 0.010817 -0.00248137 -0.00227835 -0.00476026 -0.00346274 -0.00642909 -0.00920138 -0.00598867 0.00814175 -0.00869825 0.0138088 0.000833989 0.00896734 0.0330533 -0.00435861 -0.00837051 -0.00877965 -0.0104586
internal_weight=149505 39572.2 109933 27439.2 45875.3 12132.9 16915.7 8677.75 64057.5 10523.6 25409.3 3455.16 7132.32 6558.24 20466 9863.7 3077.77 11928.1 25205.6 10357.4 5032.32 2336.01 18904.2 13481.2 1545.44 2099.99 3776.56 3659.12 38852 8797.54 741.758 6087.14 6249.09 12578.7 10106.7 2899.12 12626.9 5499.56 2028.04 1741.32 6738.74 6428.53 3958.93 3616.81 10719.4 1331.25 4108.32 3309.1 5754.54 2597.57 1880.82 1689.55 2290.16 14487.3 3656.71 659.88 7549.68 6646.38 973.168 696.895 5066.59 1061.55 875.906 1965.37 2627.68 1468.23 377.384 2788.53 1842.86 632.199 1151.51 2049.92 673.988 3950.21 1895.74 346.512 3704.62 6742.47 2778.04 938.253 1173.3 1956.53 4280.93 1615.71 2492.61 1253.9 1356.77 573.783 886.157 2505.19 2776.91 387.306 24364.7 20221.7 3164.46 1660.29 1228.41 435.644 572.271 5360.7 3752.19 295.111 1003.47 2540.98 5932.28 1285.68 1286.69 6571.62 2714.54 594.691 1092.05 1374.79 1547.75 3857.09 6736.09 558.511 1415.51 2098.41 734.449 1902.13 1228.78 1209.58 2054.08 3730.96 1664 416.769 855.165 524.056 1114.04 559.806 5825.76 5572.5 768.115 170.851 3985.91 803.688 257.219 359.773 1294.91 1579.05 44.8632 5541.66 6937.61 2919.7 394.195 5177.72 221.812 126.142 987.766 185.646 2436.05 4629.98 4952.06 13485.6
internal_count=1324647 327194 997453 230623 401251 96571 142247 61988 596202 88376 222479 34583 51210 66742 178772 82806 30868 122989 226177 75505 36127 23455 165110 99490 10778 15083 38305 37121 370025 90370 7413 44501 45423 113261 74740 29621 112916 56506 14563 16534 49609 66483 26720 27646 95979 8987 30082 24103 59510 24719 19007 18562 18703 137863 34864 5570 69715 69149 7396 6965 51907 12402 10238 18696 17733 11212 3715 22773 21642 6023 10982 24143 6973 26836 19298 3412 35367 49881 20398 7131 7936 14087 31569 13195 16887 13778 12894 5739 8403 23882 18900 3163 232162 192950 32482 13559 10032 4784 3382 55718 27678 3452 8195 19470 44112 13431 10508 48632 20077 6921 11950 14167 18190 28555 61306 3300 8481 14226 5998 19425 12838 11059 16775 38463 11300 4325 8131 6113 9098 3351 43171 41453 4633 1249 41551 7348 2648 2659 15196 11685 448 57378 68148 32549 2661 38601 2028 932 9031 2164 23267 37166 52997 131644
cat_boundaries=0 2 4 6 8 10 12 14 16 18 20 22 24 26 28
cat_threshold=386534127 301191 3632505447 63588 203302277 20583 3106982594 5848 2954757704 60287 3142084884 59757 2164560405 54596 967712 13903 4040330514 3118 7342282 5813 3911323373 66203 1084382401 121630 12583520 3120 305174712 9315
is_linear=0
shrinkage=0.0100667


Tree=1
num_leaves=155
num_cat=22
split_feature=13 13 13 66 66 13 66 13 13 66 13 66 66 66 13 13 66 66 66 66 65 65 65 66 65 67 67 66 66 66 67 65 65 67 66 12 65 66 65 66 66 67 66 12 67 13 66 66 67 66 66 12 66 67 13 67 65 66 66 0 12 0 66 65 67 12 66 67 66 13 67 13 66 12 13 66 67 66 66 13 66 64 66 0 67 12 67 66 12 62 65 0 15 67 66 12 66 65 13 62 63 66 66 12 12 0 12 53 63 65 66 65 33 0 62 21 67 62 12 66 12 66 12 15 13 63 12 66 64 12 67 54 12 66 12 64 66 55 66 67 13 65 12 67 36 66 37 66 12 66 26 30 66 11
split_gain=103673 18595.2 15243.7 3519.45 3519.21 2715.29 1736.88 1520.31 1405.96 1349.17 1175.53 1021.07 705.894 643.294 561.843 500.018 457.468 374.752 349.092 282.956 276.805 226.617 218.741 217.646 214.515 211.519 205.848 205.48 193.327 182.606 165.334 156.804 151.836 141.028 141.782 139.776 138.605 137.718 127.497 116.451 111.049 110.793 109.449 105.139 104.003 102.055 101.642 100.131 100.012 95.3589 95.1319 91.7924 86.539 81.1626 80.4747 74.6712 73.2624 71.6122 71.3369 69.7969 69.2532 68.209 66.0484 63.6787 63.5955 62.6153 59.8244 58.8041 57.2308 59.7193 55.6843 55.4024 54.355 54.0707 51.1824 51.1669 50.3003 49.9845 49.8477 48.542 47.0145 46.4139 45.0777 44.2502 44.2466 44.087 43.1726 42.4196 42.0856 41.9012 41.8752 41.006 39.0391 38.3588 37.1291 35.5662 35.15 34.9618 34.8046 32.7221 31.3222 30.8608 30.6241 30.3618 30.1995 29.5926 28.5875 28.3834 27.7282 27.2187 27.0054 26.142 25.668 25.5342 25.3024 25.0898 24.9156 24.6212 23.7112 23.1955 23.115 22.3569 22.1862 21.7597 21.625 21.335 21.3023 20.8259 20.6704 20.5445 20.5197 20.3679 19.797 19.3973 18.5167 18.0136 17.8978 16.9448 16.4839 15.2292 15.1374 14.846 14.7444 14.6657 13.8993 13.624 12.4958 10.7129 10.4459 10.4079 9.72514 9.52071 8.79649 8.51368
threshold=3.5000000000000004 1.5000000000000002 9.5000000000000018 0.1347671908726488 0.11443452380952382 1.0000000180025095e-35 0.12914197937239416 17.500000000000004 2.5000000000000004 0.038610614192009549 5.5000000000000009 0.01941930618401207 0.095119047619047631 0.030457637600494747 2.5000000000000004 5.5000000000000009 0.27151675485008825 0.22154674988224213 0.08314132104454687 0.22154674988224213 0.4375764058679707 0.49566926142518913 0.3958416467145518 0.24974437627811866 0.46488905240862927 0.5366750358680058 0.43493243641942531 0.25869630973986696 0.062432795698924737 0.040678433535576396 0.50917508417508428 0.3461785961785962 0.48845102984447253 0.4155386866654473 0.099033252381841977 0 0.49415618014736323 0.24974437627811866 0.34537840279225401 0.38147896406288134 0.059213089209193617 0.36681957186544351 0.13898086828550407 1 0.4108203257550051 29.500000000000004 0.19325757575757577 0.095119047619047631 0.41185250219490782 1.0000000180025095e-35 0.166919959473151 2 0.079042029534267325 0.34391801075268824 6.5000000000000009 0.47080136402387046 0.45978725749559085 0.095119047619047631 0.20031347962382448 4.5000000000000009 3 8.5000000000000018 0.38972696085342362 0.34537840279225401 0.3273531777956557 4 0.15282200990799719 0.33395989974937351 0.027149877149877152 27.500000000000004 0.50339660339660353 7.5000000000000009 0.16648189209164821 5 12.500000000000002 0.16333199946645327 0.36334684423856406 0.074179894179894193 0.19157801418439721 4.5000000000000009 0.06461100569259963 0.11016587300438567 0.35355392156862753 3.5000000000000004 0.58845726970033307 6 0.45183384887317724 0.17574992574992579 7 0.24605263157894738 0.35763484258496059 8.5000000000000018 1.0000000180025095e-35 0.45183384887317724 0.34514106583072107 8 0.4188596491228071 0.36490665923655619 13.500000000000002 0.14542930682811542 0.37338310044053491 0.077041785375118729 0.16246827411167516 9 10 3.5000000000000004 11 1.0000000180025095e-35 0.35019626341773696 0.41925723531936693 0.28934468524251816 0.31864665303151113 2.5000000000000004 4.5000000000000009 0.14184321253636803 88.850000000000009 0.2730983302411874 0.1690931448568784 12 0.35355392156862753 13 0.17628560858305589 14 1.0000000180025095e-35 4.5000000000000009 0.29707803625749513 15 0.059213089209193617 0.082862282970864079 16 0.33395989974937351 0.52206359506813771 17 0.033615819209039555 18 0.24680758571971964 0.4188596491228071 19 0.091372912801484255 0.49944567627494463 6.5000000000000009 0.36331764363354041 20 0.28136574074074078 0.39250000000000007 0.19752319607392074 -0.72049999999999981 1.0000000180025095e-35 21 0.01941930618401207 87.450000000000017 3.7500000000000004 0.24321253071253077 6.5000000000000009
decision_type=8 10 8 10 10 10 10 10 10 8 10 8 10 8 10 10 10 10 10 10 10 10 10 10 10 10 10 10 8 8 10 10 10 10 10 9 10 10 10 10 8 10 10 9 10 10 10 10 10 10 10 9 8 10 10 10 10 10 10 2 9 2 10 10 8 9 10 10 8 10 10 10 10 9 8 10 10 10 10 10 8 10 10 2 10 9 10 10 9 10 10 2 2 10 10 9 10 10 8 10 10 10 10 9 9 2 9 2 10 10 10 10 2 2 10 10 10 10 9 10 9 10 9 2 10 10 9 10 10 9 8 2 9 10 9 10 10 1 10 10 10 10 9 10 2 10 2 10 9 10 10 8 10 8
left_child=1 5 4 9 11 28 13 12 16 49 19 -2 29 149 33 40 20 25 68 22 41 70 67 31 55 44 52 38 133 147 -19 117 109 34 80 61 82 63 78 59 128 111 84 72 108 87 -43 53 81 -3 -46 93 97 91 104 152 110 120 -37 -32 102 -22 -57 66 -54 130 143 99 -9 -70 -18 -45 -40 124 121 144 -36 116 100 -62 -11 -49 103 -53 123 -59 -67 -20 -69 113 -79 -16 -77 -33 107 140 -75 -15 -31 -6 -12 150 -24 -29 138 -44 -50 -34 -8 139 118 -5 -103 -23 -80 -111 -56 131 -39 -72 -35 -65 -68 -30 -26 142 -112 -55 134 -76 -42 -10 -58 -1 -13 -41 -97 -106 -17 -25 -38 -127 -89 -14 -27 -47 -91 -4 -130 -7 -28 -84 -21 -119
right_child=2 3 7 8 10 6 17 18 23 14 27 15 37 26 47 54 21 30 45 24 35 89 60 32 73 75 101 36 42 98 39 51 94 57 76 58 95 56 43 135 65 46 105 71 50 145 -48 48 106 -51 -52 83 64 127 77 62 132 85 -60 -61 79 -63 -64 74 -66 86 122 88 69 -71 119 -73 -74 96 129 92 -78 90 114 -81 -82 -83 151 -85 -86 -87 -88 125 -90 146 -92 -93 -94 -95 -96 136 -98 -99 -100 -101 -102 112 -104 -105 137 -107 -108 -109 -110 115 126 -113 -114 -115 -116 -117 -118 153 -120 -121 -122 -123 -124 -125 -126 141 -128 -129 148 -131 -132 -133 -134 -135 -136 -137 -138 -139 -140 -141 -142 -143 -144 -145 -146 -147 -148 -149 -150 -151 -152 -153 -154 -155
leaf_value=-0.0043105878411087558 -0.011623311084544001 -0.011691685457346935 -0.011628671677125309 0.031029124651041518 0.01226098074676882 -0.011272150138481866 0.034572276334348319 -0.01141995732526209 0.018607115354182517 0.0036431578398668078 0.0034995448177150374 0.00066470175519788412 -0.0017445848220042658 0.015006960642549517 0.002399418916571239 -0.0019688261595938376 0.032946679513601022 0.033918474569087191 -0.0079222889088848853 0.012541899356819014 0.013613991790973352 0.015258020117716011 0.0020930357376578446 0.027094772857058778 0.0079683306788301683 0.015082640443680073 0 0.0012892654033979563 0.034117315351483039 -0.006953546745889199 0.023757894867751386 0.0083001922186269825 0.0097632021362594468 0.0042041942682474933 0.015459688289434285 0.0089229938579112808 0.0060889496119428937 0.0039307015441634539 -0.0010950392852909219 0.037864985350747019 0.0029340437577671024 0.013889816143727644 0.034362021643302938 -0.0010240552524311576 0.019966733986173969 -0.0093792273006471326 0.018750804102051492 0.010347032441490227 0.0050267064039994898 -0.0028270338669486206 0.024534482141913456 0.0065040356018699992 0.024942146731103117 -0.0050994836220187032 -0.0052557502563736411 0.008289627018459771 -0.00066764139234868703 0.0030547254436121304 0.012093999787022991 0.027175451004327403 0.0022677472274383517 0.01946725863015112 0.023094310558535589 -0.0051253886382097982 0.017507033132074103 -0.0010107128957256822 -0.0024059533526334677 0.0031504258383924879 -0.0091883814090815159 -0.010433195340976312 0.020985039825545684 -0.0028983157770429697 0.0013963299789697243 0.0033868171665326907 -0.0068500624110035642 0.022786159700651284 0.010062697176568984 -0.0021566123903790846 0.010322288223419358 4.6290728342726123e-05 0.0081948300456668594 0.0052629287491360545 0.0013304329234826173 0.0094431703044960628 0.00031434235599602265 0.0083959974454169677 -0.0043991415276740144 0.0032603813951245413 0.006522803234909059 0 -0.004956612523319249 0.0069553193097729891 0.017616710816370059 0.0048260839035522262 0.015237222765258518 -0.0011194827678010287 0.019056686442096078 0.0066965533784357958 -0.0082204155582968879 0.0038872204277819187 -1.7006477245567307e-05 0.0036866307340953047 0.0046023856681830094 0.0072290631099110152 -0.0027912664024442547 0.038354189723547746 0.0006760759577456824 0.0045113615823899793 0.026595766538194437 0.015473372390327722 0 0.020614557819030994 0.012107187939910325 0.018809465094308829 0.0024237440982898804 0.0054644019567698272 -0.0072066941847588268 0.0097021408925479346 -0.0021965224240049464 0.028184980305841958 -0.00090325140134759089 -0.0036002394313218223 0.0014600589521811687 0.027044015111665001 0.0046234516943475983 -0.0039468316268141349 0.0073732400839543856 -0.00021737367903489738 -0.001831627671803714 -0.0051255592008521257 0.00027527889015362405 0.010250508904409926 -0.00446987299256705 0.012440871048350633 -0.0041494193229828173 0.029032618166796736 0.012683248578200437 -0.0045834307956176441 0.0018347843230232669 0.017541199445394222 0.0012780855256349236 -0.0067398322546650541 -0.0040684393103261867 -0.0048518457347761969 0.0069353852661737493 -0.0077153288190000835 0.011415210569575337 -0.0094108552253614284 -0.0070283134203762802 0 0.0066883680573374292 0.015705197414855144 0.01930952135299599 0
leaf_weight=9.2762136012315768 1548.5948845297098 470.95131880789995 1289.7311863824725 55.856472097337246 221.89934525638819 86.231094427406788 107.35654395073652 4104.3045608736575 172.520487613976 288.00850109010935 425.42902540415525 106.45237290859222 229.59179206192493 148.92513263970613 2271.0037244483829 592.77300201356411 91.566228672862053 343.50319715589285 5351.4736676588655 94.337923370301723 2085.8414387851954 557.43075496703386 894.37941125780344 47.606143087148666 685.88697245717049 95.571964479982853 39.286447763442993 159.8570349290967 178.89151868224144 6181.335865445435 1532.8834330886602 450.214186668396 924.41829699277878 126.85249394178391 383.41570775210857 1514.0720268338919 133.51102457940578 89.099410325288773 1531.2124853357673 115.61822530627251 374.6639457270503 1445.2773097679019 681.24911517649889 4058.5498747751117 888.60463290661573 5984.8783371672034 745.98373347520828 372.61983625590801 251.879897788167 185.29428394883871 1480.7756267637014 895.19785905629396 157.76882822066545 112.81542013585567 4273.7005589827895 749.46392305195332 259.33577698469162 334.46863535046577 1737.2616843655705 1638.431661605835 2599.8700915649533 267.76768041402102 35.651445835828781 3037.8782996274531 1725.8584845140576 4469.43542060256 289.35859251767397 785.4378300383687 6685.4072582907975 13368.436440397054 336.52463825047016 2756.4818350076675 2084.9095948599279 1484.6447817385197 2495.0742378272116 309.84783885627985 472.19400478899479 1006.9786689057946 112.28742069751024 1681.2690045386553 2903.4827126711607 465.02869281172752 12.153689637780188 1846.2833639346063 7.9070922806859008 486.38242863118649 428.23081104457378 35.846835218369961 1080.6135638430715 10.13478374481201 1381.401399537921 233.62922533601522 648.25582797825336 1823.7034518718719 135.12003859877586 560.80309423059225 15.912453047931193 116.65824147313833 4473.3922235816717 81.389351196587086 587.59685651212931 58.92890602350235 1374.9327956140041 378.33046299219131 1517.2330480441451 880.74197342246771 465.18223433941603 154.25247799605131 353.61566891521215 276.39481230080128 55.047078907489777 180.13198836892843 318.37393215298653 763.89827135950327 91.748437844216824 43.317033037543297 967.9773775190115 66.010700017213821 170.67768643051386 109.90515697002411 232.35487844049931 1827.2714120000601 282.97075097262859 206.48678608983755 387.30235157161951 308.13313157111406 111.4159150570631 515.98982144892216 100.29627975821495 2030.3695595636964 1602.9657065048814 69.325460232794285 459.51039899140596 13.816412746906279 218.96776413917542 124.22298803925514 9.2868233174085599 1332.404669739306 132.24817052483559 141.79257399588823 190.65919747203588 1752.0437295213342 53.941465370357037 1189.7970289811492 59.688501544296741 898.01599504053593 125.11460724473 601.51073724776506 356.33310193568468 10.939894147217272 38.637652270495892 71.711844176054001 104.72937950491905 10.390409171581267
leaf_count=69 13662 4008 11576 466 1932 700 870 39212 1460 2398 3754 962 2090 1185 19046 5551 756 2750 49648 811 17743 4388 8126 411 6075 757 310 1399 1360 55477 11543 3656 7882 1074 3184 11979 1232 803 14392 905 3377 11925 4783 34521 6985 59278 6137 3147 2172 1562 11775 7300 1276 949 38027 6416 2428 2707 13759 13462 21778 2572 300 27331 13627 38054 2559 6601 61306 131644 2755 23670 19674 12625 21918 2515 3874 8895 984 14211 24018 3996 105 16787 59 3982 3613 324 9559 76 12162 2256 4926 14703 1137 4822 135 923 40502 700 5174 440 12462 3349 13302 6641 3823 1257 2802 2338 475 1491 2509 6601 805 351 8515 564 1555 891 1873 16509 2596 1477 3469 2840 1012 4307 902 19244 14353 584 4102 104 1839 977 79 11271 1247 1183 1783 16404 499 10639 452 8870 1005 5361 3040 90 299 621 915 90
internal_value=2.58234e-06 0.0138651 -0.00506661 0.00927245 -0.000640856 0.0241222 0.0220547 -0.00825592 0.0120991 0.00470069 0.00185594 -0.00375525 -0.00632139 0.015069 0.00562856 -0.00310701 0.0145281 0.0245006 -0.0095133 0.00409677 0.0134381 0.018896 0.00311118 0.00864165 0.00650026 0.0222691 0.0160242 -0.000230694 0.0349691 -0.00801387 0.0268331 0.00761416 0.0117977 0.0079032 0.0088087 0.0121781 0.00325024 -0.004623 -0.000687485 0.0261071 -0.00111692 0.01633 0.0353146 -0.00105007 0.0237839 -0.00825646 0.0155641 0.00308331 0.00518967 -0.00925365 0.0228394 0.00716259 0.0173523 0.00202461 -0.00446324 0.0105361 -0.00124523 0.00476159 0.0105978 0.025537 0.00218328 0.0142375 0.00901621 -0.00495907 0.0181524 -0.000700772 -0.00326771 0.00589339 -0.0102599 -0.0100203 0.0246503 -0.00178577 0.000328691 0.00494042 -0.00531327 0.0183801 0.012531 -0.00505684 0.00238516 0.00140203 0.00779743 0.00757543 0.00690702 0.00846809 0.0299408 0.00641103 -0.001313 -0.0074141 0.00517802 0.0167414 -0.00379393 0.0028414 0.019333 0.00550844 0.00977539 0.000658906 0.00355769 0.0115171 -0.00748944 0.0101544 0.00141774 0.00966047 0.00361625 0.00570223 -0.0031843 0.0366403 0.00234327 0.00905169 0.028546 0.0165356 0.00200022 0.0232603 0.010905 0.0173435 0.00697944 0.0142506 -0.00562416 0.0145967 0 0.0228531 0.000873698 -0.00456133 -0.000436597 0.0304381 0.00673813 -0.00612936 0.00516572 -0.00116106 -0.00472096 -0.00611223 0.000796505 0.0163879 -0.0032289 0.00386687 -0.00255075 0.0334682 -0.000805729 -0.00365723 -0.0011997 0.0201677 0.00328945 -0.00634278 -0.000757921 -0.00437926 0.012225 -0.00916833 0.0105442 -0.0109458 -0.00617424 -0.0100947 0.00308773 0.0141302 0.0163165 0.00836885
internal_weight=149502 40033.2 109469 27654.9 45852.9 12378.4 10400 63615.8 17083.3 10571.6 25442.2 20410.7 25073.4 2701.61 9915.31 18862.1 10026.8 7698.38 38542.5 12277.7 8032.19 1994.57 8719.79 7056.55 3557.93 3943.72 2604.44 13164.5 1978.37 12546 3754.66 5333.65 1722.9 5227.16 4047.1 5604.94 1516.31 12527.4 11648.2 3411.16 7657.35 2427.25 1955.28 10431.2 2830.35 14384.3 2191.26 4688.15 1554.71 656.246 2369.38 5015.4 2149.21 3133.44 11204.7 984.183 1145.09 1180.06 3251.33 3171.32 6550.45 2353.61 785.115 11382.3 1883.63 6875.3 1991.72 2169.34 24158.1 20053.8 537.996 6815.03 3616.12 2573.75 9390.59 1113.36 855.61 7630.06 1217.06 4281.14 3191.49 837.649 622.053 2741.48 393.285 820.851 4897.67 7501.44 1866.05 1456.58 2388.38 2504.63 958.104 2273.92 1213.79 894.26 1500.56 265.583 10654.7 303.289 1013.03 455.227 2269.31 538.187 3574.66 1561.99 717.062 1078.67 460.972 509.111 426.24 235.988 377.303 1321.33 204.036 319.712 5241.68 318.247 259.777 446.43 359.207 4865.15 572.329 385.378 1073.19 2149.97 166.463 628.805 782.05 4525.44 1977.63 241.846 718.846 23.0926 325.42 239.841 570.09 2849.64 725.021 189.399 324.17 2060.18 89.7883 1419.39 155.26 6882.89 135.249 1891.24 456.629 97.171 77.9241 83.8655 199.067 76.4011
internal_count=1324647 327194 997453 230623 401251 96571 82078 596202 142247 88376 222479 178772 226177 21359 82806 165110 82544 60719 370025 106115 66072 16472 75369 59703 30746 31082 20569 116364 14493 112916 29637 45144 14559 43110 33474 46053 13390 113261 102974 26887 66140 20019 14320 92257 22432 137863 18062 39696 13138 5570 18760 42446 17011 26558 98970 8442 10375 9636 25738 25005 56577 20315 6716 102886 14903 59397 17884 18792 232162 192950 4402 58191 34066 22304 85002 8650 7058 67599 10717 35989 26416 7143 5474 24087 2896 6689 41667 69715 16160 12070 21057 21302 7441 18359 10276 7916 12760 2108 95979 2632 8928 3558 20588 4748 31371 11424 5995 9139 3672 4283 3845 1957 2949 10989 1789 2689 46542 2698 2358 3646 2947 43840 5155 2837 9544 20067 1487 5256 6743 41162 17730 2044 6530 173 2801 1882 4901 24573 6798 1594 3015 19244 823 12729 1209 68148 1081 16937 3942 790 609 726 1726 654
cat_boundaries=0 2 4 6 8 10 12 14 16 18 20 22 24 26 28 30 32 34 36 38 39 41 43
cat_threshold=1247950464 121612 2892117440 87308 270321962 42227 94508161 21386 613032983 71950 551572491 128652 1480598125 67829 2659984175 26129 778085576 28841 2869733932 73856 105395208 22792 3909266565 7626 1245719552 72434 1629529678 2248 1766642348 44059 437310536 3171 1880941176 45301 1877520669 4107 2185401413 86432 1 3255307324 1665 3372773377 72968
is_linear=0
shrinkage=0.0100667


Tree=2
num_leaves=155
num_cat=12
split_feature=66 66 66 11 11 66 66 66 32 64 66 11 66 33 66 64 33 33 33 33 66 15 21 2 33 27 66 26 11 66 15 11 15 37 64 27 26 26 27 33 33 64 62 11 64 63 33 27 27 63 37 32 66 66 33 27 15 27 33 37 66 27 2 11 66 11 15 27 27 66 40 27 11 66 11 37 37 37 2 2 32 32 27 32 14 15 19 21 2 26 66 66 66 47 2 66 47 37 37 11 28 27 47 2 2 15 33 37 22 2 66 66 2 2 40 8 17 26 9 8 8 8 66 37 11 27 21 32 11 27 66 8 14 37 40 45 2 11 33 8 40 8 37 27 66 8 28 66 9 9 27 37 2 9
split_gain=44049.6 7455.78 4616.71 3024.64 1773.14 1156.74 1153.13 1047.94 794.937 708.525 541.834 537.206 501.734 492.634 431.03 417.132 358.019 280.909 264.261 263.688 261 243.486 238.664 222.053 218.578 233.581 216.988 208.504 186.577 172.343 169.06 170.387 153.567 149.63 149.158 144.566 144.142 139.737 137.964 137.543 137.066 135.787 127.589 124.991 115.143 110.965 106.051 112.48 104.939 101.009 100.897 96.3859 96.3403 92.9038 91.2135 90.7492 88.1189 83.2971 81.9684 81.9145 81.6385 79.0168 78.2047 77.9021 77.3023 76.0594 72.0163 71.493 69.4107 68.6791 67.8785 66.9799 66.5979 66.2374 64.9027 63.5945 63.5615 59.2016 55.8206 55.4563 54.2443 54.1719 53.9123 53.8525 51.0719 50.3568 64.455 49.5512 48.8031 48.5244 47.1216 46.8111 46.3694 45.9006 45.0874 44.6602 43.5431 43.0935 42.6493 40.4145 39.867 38.7422 38.0826 37.7398 36.6566 36.0265 35.6785 34.6717 34.4769 39.2059 33.0961 32.7591 31.2738 31.1828 30.0642 29.9326 28.8604 28.1217 27.1797 26.4447 26.4034 25.9977 25.8928 25.8104 25.7208 25.0633 24.167 23.8814 23.7208 23.1459 22.6846 22.6037 21.8889 21.7389 21.5762 21.3962 20.6395 20.6265 20.5597 20.3033 20.1451 19.4693 18.7096 21.4147 18.5804 18.3029 17.8305 18.7115 16.4387 15.8886 15.652 15.5958 15.2098 14.5057
threshold=0.147197123363452 0.23697775366250681 0.055749805749805752 4.5000000000000009 3.5000000000000004 0.32830124188219217 0.095119047619047631 0.10676884476928113 0.040408163265306128 0.10316876083084335 0.19325757575757577 3.5000000000000004 0.02339261285909713 2.5000000000000004 0.19053835633470101 0.12819154715341158 2.5000000000000004 3.5000000000000004 3.5000000000000004 2.5000000000000004 0.4188596491228071 1.0000000180025095e-35 82.850000000000009 20360.000000000004 2.5000000000000004 75.550000000000011 0.074179894179894193 85.450000000000017 2.5000000000000004 0.10020080321285142 1.0000000180025095e-35 2.5000000000000004 1.0000000180025095e-35 0.10550000000000002 0.16462358160822846 73.15000000000002 81.450000000000017 78.050000000000011 76.15000000000002 2.5000000000000004 2.5000000000000004 0.055591490585022281 0.18884521670173376 1.5000000000000002 0.032980978412450505 0.49913825719041044 2.5000000000000004 83.250000000000014 70.850000000000009 0.43214915586592889 0.13400000000000004 0.36474501108647456 0.18849732834139074 0.27601242983159585 2.5000000000000004 73.15000000000002 1.5000000000000002 73.750000000000014 4.5000000000000009 0.19100000000000003 0.27806414662084772 80.850000000000009 15020.500000000002 2.5000000000000004 0.055749805749805752 5.5000000000000009 1.0000000180025095e-35 85.050000000000011 68.15000000000002 0.11669909208819716 2.7150000000000003 73.750000000000014 3.5000000000000004 0.26702317290552591 2.5000000000000004 0.25650000000000006 0.13400000000000004 0.16050000000000003 30505.000000000004 13505.000000000002 0.5590277777777779 0.033615819209039555 69.750000000000014 0.033615819209039555 16.500000000000004 1.0000000180025095e-35 73.950000000000017 65.450000000000017 12409.500000000002 87.950000000000017 0.20517604286261007 0.058481532147742828 0.055749805749805752 20.500000000000004 78062.500000000015 0.26936715766503005 28.500000000000004 0.24050000000000002 0.13400000000000004 1.5000000000000002 87.350000000000009 82.850000000000009 16.500000000000004 7350.0000000000009 18774.000000000004 1.5000000000000002 2.5000000000000004 0.11800000000000001 84.550000000000011 53044.000000000007 0.17373429416112343 0.38147896406288134 46001.000000000007 13016.500000000002 2.5750000000000006 0 3.5000000000000004 81.65000000000002 1 2 3 4 0.21735938198301732 0.24050000000000002 5.5000000000000009 73.050000000000011 90.050000000000011 0.39339826839826847 5.5000000000000009 64.550000000000011 0.071175278622087154 5 14.500000000000002 0.14850000000000002 1.0650000000000002 0.88500000000000012 49044.000000000007 1.5000000000000002 1.5000000000000002 6 3.2450000000000006 7 0.13400000000000004 87.950000000000017 0.066465863453815277 8 75.15000000000002 0.35355392156862753 9 10 69.550000000000011 0.10550000000000002 11002.000000000002 11
decision_type=10 10 8 8 8 10 10 10 2 10 10 8 10 2 10 8 2 2 2 2 10 2 8 2 2 10 10 10 10 8 2 10 2 2 10 10 10 10 10 2 2 8 8 10 10 10 2 8 10 10 2 2 10 10 2 10 2 10 2 2 10 10 2 10 10 8 2 10 10 10 8 10 8 10 10 2 2 2 2 2 2 2 10 2 2 2 10 8 2 8 10 10 10 10 2 10 10 2 2 10 10 8 10 2 2 2 2 2 8 2 10 10 2 2 8 9 2 10 9 9 9 9 10 2 10 8 10 2 8 8 10 9 2 2 8 10 2 10 2 9 8 9 2 10 10 9 8 10 9 9 8 2 2 9
left_child=2 4 12 7 8 11 9 15 19 41 18 13 -1 22 36 21 61 53 67 110 40 26 117 29 89 50 44 62 43 130 31 96 74 57 49 59 113 -34 75 51 108 92 -31 140 -4 83 47 -38 151 87 65 -29 -45 101 142 79 112 81 -57 85 -39 131 137 -28 88 -26 -59 76 141 132 94 146 99 123 100 95 118 90 -51 -23 -72 -20 144 -25 -70 86 -8 -11 -36 -12 -30 -47 139 -41 -24 -19 -18 -71 -58 -14 -15 -13 -48 -50 -33 -75 -22 -84 -7 -110 -2 -73 -27 -10 148 -103 126 -3 -6 -79 -69 -64 136 -40 -78 -77 -63 -116 152 -52 -17 -9 -56 -122 -76 149 -91 -16 -119 -5 -21 -35 143 -37 -43 -124 -42 -148 -55 -112 -130 -32 -61 -133
right_child=1 5 3 6 10 20 35 16 14 34 24 17 72 32 27 23 30 38 33 28 106 55 70 45 25 56 63 39 77 42 48 104 37 68 64 54 46 60 73 93 71 82 -44 52 -46 91 102 -49 103 78 129 -53 -54 114 69 58 98 66 -60 128 -62 116 121 -65 -66 -67 -68 120 84 97 80 111 -74 105 134 125 124 119 -80 -81 -82 -83 107 -85 -86 -87 -88 -89 -90 122 -92 -93 -94 -95 -96 -97 -98 -99 -100 -101 -102 115 -104 -105 -106 -107 -108 -109 109 -111 135 -113 -114 -115 127 -117 -118 138 -120 -121 133 -123 145 -125 -126 -127 -128 -129 150 -131 -132 153 -134 -135 -136 -137 -138 -139 -140 -141 -142 -143 -144 -145 -146 -147 147 -149 -150 -151 -152 -153 -154 -155
leaf_value=-0.011433990285994572 0.0011240105465681171 0.0028782249497547488 -0.0081902134893348591 0 0.0031585487369304669 0.010735417457195156 -0.0029784045450284001 0.0016187161357212251 0.0028956640936958892 -0.0072736015750366773 -0.0010447653645079542 0.0029945076614479147 -0.00871071755167677 0.018887886996467693 0.0046726889018235797 -0.0051031727798036318 0.0092734169588312623 0.0084115893661788396 0.0035188487235985029 0 0.021028481672457539 -0.0042701226899499447 0.011621154110717149 -0.00094428123062713918 0.007743690287475789 0.010317205724525947 0.0039270050262941326 0.0054103600568313932 0.0091012442439260717 0.001692410979832905 0 0.0039371153153622551 0.0066070124922605125 0.0036357445278566015 0.00072770203052470634 -0.0032609409990314725 0.00086635307554923672 0.013238251199348105 0.012281730934006139 0.011812392682499879 0.011994965285086267 -0.0082078754531017505 0.009489843408602221 0.012127231961123058 -0.0024217591704268717 0.0039787014169488403 0.0075681763819204547 0.0048977647205819654 0.0056312574598944686 -0.0020344325194511619 -0.00074986638383344037 0.0098003976015600385 0.016908660148089127 0 -0.0011645112531329376 -0.0046349507810541724 0.0076569345428731395 0.0091752271060638151 -0.002392057500827805 -0.00079959837113560337 0.016918717908228079 -0.00029048738919622643 0.0060013809514918651 -0.00033238397226818388 -0.0059046729345699159 0.0038860449895559016 0.0042431656297279886 -0.0024132587724775925 0.0027984677724021412 0.0014656915252708094 0.012923243897298218 0.019542743074578008 -0.0082794518737664136 0.017660238522776164 0.010410187933285797 0.0038528921609174214 -0.0013829513161101009 -0.0012674316700728246 -0.0056500391263524284 -0.0067619674535987044 0.019815848376893219 0.00028980935560944876 -0.0052995843718396255 -0.0035198870591364555 3.5260739778007486e-05 -0.0045857770958040662 0.00024262219977371106 -0.0052409363422377267 -0.0025508306212400312 0.0027401029706335192 0.014171005332308879 -0.0031024526301941802 -0.0069448343855365432 0.0089065339954151786 0.0066535766355506707 0.012088898605093759 0.0046379658770483419 -0.0013548035776593053 0.0040834806377038641 -0.0051087823911651134 0.025292661412827031 0.0016107235457048701 0.0050689012094847418 0.0018479221122158563 0.0010333161936089495 0.013098480185143738 0.030191804330276614 -0.0071216047094525264 0.017873839653012119 0.010698709402406704 0 0.024744237127450105 0.0045438719744534855 -0.00063072809265736431 0.0097533540119919531 0.0072298479991697445 -0.0028494882684658011 0.0029137274828887018 -0.00050657982107237183 0.0068413480828748412 0.0040860670446448968 0.0012549344215982618 -0.0005641077589299677 0.0080996911873183631 -0.0042368837818667938 0.0089731352369901637 0.0024800420997859126 0.017853433956794968 -0.0066828867582680472 0.0022983730563824723 -0.0014441396183091022 0.00059464007105723585 -0.003642943133442926 0.0007305141120233275 0.016785522406309844 0.00040756887848938082 -0.00019315319861447897 0.0086391606117686513 0.0078559927795700465 -0.0097385647704818258 0.0075922875672980858 -0.0014924780717751878 -0.0048419385890764886 0.00091288074372110871 -0.0067702239013167293 0.0048172023002903946 0.014527787396218805 0.019935115085509623 0.0073116474660141501 0.0078094991951901758 -0.0043333642899282751 -0.0024267582027298106 -0.0045728100580329977 -0.0036325983279024243
leaf_weight=7439.3072078488767 224.46370156854391 255.3777173012495 393.09463570266962 32.262548439204693 214.46898244321346 317.09186940640211 2785.3809717744589 84.050392374396324 386.25701107829809 1772.7782246991992 497.47548805177212 628.2246915102005 463.9650247246027 498.35483887046576 323.54102359712124 228.03780069947243 685.2270695194602 849.8506785929203 1581.1494678929448 64.366253383457661 105.14744330197573 2077.2887446731329 874.78117113560438 1245.5076535344124 763.61596155166626 1118.4363476037979 653.38183819502592 1793.5870602875948 837.59068553894758 2876.5472231656313 516.66862874478102 988.44852459430695 247.83410080522299 67.721982069313526 608.86689075827599 553.94453562796116 1294.349041134119 1660.4252838492393 567.75139026343822 1079.853034697473 143.43339097499847 4405.9347292482853 233.37471691519022 1052.8966624587774 4034.250759601593 387.19798213988543 957.93973683193326 1610.7489529401064 305.91451297700405 1445.5442591905594 309.35593562573195 765.65430234372616 883.6288148239255 40.198596768081188 900.0562536790967 3362.6750055104494 800.09668851643801 398.69321170449257 3481.2724318355322 199.53598133474588 1221.9685812145472 858.72771760821342 145.90888144820929 1256.9800593107939 554.86443053930998 1922.4418260380626 1581.1073544919491 112.109310336411 1932.3934143446386 1497.7530275322497 689.02957081794739 739.02492745220661 4769.9144699163735 389.59473893791437 107.7505352422595 317.01222381740808 686.87197644263506 38.306963741779327 660.69550829380751 1854.881892234087 178.03394905477762 834.51472105458379 2192.8203441500664 2754.152847610414 1092.7411564067006 1368.6383010968566 782.62234430760145 5388.010521594435 1679.6878774985671 525.93829672783613 299.21301429718733 118.50480492413044 889.32484602928162 1648.4999542534351 295.75097500532866 750.91428029537201 359.73288907855749 855.10736601799726 717.89069147408009 1509.2412595897913 197.77287755161524 158.47109831124544 2550.6380663216114 3323.4522704593837 883.81604041904211 602.01304449141026 216.16094093769789 2753.0228817276657 324.81022133678198 150.98337928205729 37.163109175860882 253.09190753847361 134.32980152964592 709.07659173756838 590.6683662161231 765.13495474308729 283.33445996046066 132.55633975565434 2231.342006854713 578.91612027585506 448.54663453996181 736.4316683858633 62.671768076717854 314.2019142434001 713.0496900677681 181.98395981639624 488.34936259686947 55.218639262020588 1109.6487512215972 1030.9698611423373 990.52697874978185 73.689042150974274 695.8743175342679 411.50898907333612 436.93608390539885 70.023428998887539 405.04677541553974 356.48451772332191 641.37227457761765 4036.5824281796813 95.367924556136131 1033.4515540599823 724.28675019741058 141.85078462958336 1712.2264140322804 517.62450283765793 225.46548962593079 236.43334623426199 470.45360819250345 315.73890388011932 574.07672928273678 603.39146453887224 355.00271108374 1399.0600083693862
leaf_count=69000 1913 2158 3662 295 1994 2529 26008 734 3334 16904 4301 5393 4057 4302 2726 1975 6079 7545 14477 560 825 18442 7031 11547 6775 9672 5837 14746 7474 24935 4528 8759 2137 638 5430 4756 10944 13594 4749 8826 1227 41921 1932 9322 36944 3319 7975 13304 2600 12943 2862 6228 7746 321 8050 29119 6694 3507 30200 1788 9974 7274 1252 11408 5020 17549 13438 930 17009 13135 5554 5978 43981 3299 955 2835 6069 349 6122 16709 1411 7416 19803 24041 9469 12247 7319 49761 15304 4326 2640 1022 8209 13625 2476 6590 3284 7625 6053 13488 1688 1366 21402 28209 8202 4989 1771 24935 2514 1217 326 2016 1254 6244 5148 6601 2316 1114 20274 5206 3746 6308 500 2673 6431 1597 4075 441 10553 9205 8553 639 6120 3477 3792 587 3468 3015 5227 38047 803 9531 6211 1182 16054 4249 1918 2021 3990 2688 5410 5386 3310 12106
internal_value=2.5762e-06 0.00688223 -0.00433771 -0.00337025 0.0045648 0.0125251 -0.00526249 -0.00127762 0.00683487 -0.0063954 0.00262995 0.0113608 -0.00961986 0.0132354 0.00567164 -0.00237689 0.00134639 0.00926775 0.00134606 0.010539 0.018572 -0.00329446 0.010102 -0.000594455 0.00457002 0.00543492 -0.00171736 0.00750486 0.0115457 0.0010272 0.00252728 0.00444106 0.0154241 0.00241232 -0.00454936 -0.00271826 0.00399364 0.0141772 0.010989 0.00846767 0.0173775 -0.00778808 0.00229125 0.0136137 -0.00294355 -0.0021619 0.00457103 0.00311626 0.00134282 -0.00517257 0.00386553 0.00674039 0.014331 0.00672687 -0.0014557 -0.00421803 0.00770013 0.00370849 -0.0035003 -0.00365707 0.0148133 -0.0014808 0.0042191 0.00110211 -0.00250326 0.0049986 0.00525791 -0.000531086 0.00102129 -0.000655652 0.0121192 0.0191461 -0.00761211 0.0130295 0.0185353 0.00914798 -0.00115454 0.00904984 -0.00318883 -0.00545641 0.0143877 0.00242099 -0.00715025 -0.00272849 0.00181443 -0.00291339 -0.00225995 -0.00575011 -0.00165996 0.0016222 0.0104731 0.00223506 -0.00920278 0.0100723 0.0104024 0.0101632 0.00771842 0.00042252 0.00599504 -0.00597731 0.0207688 0.00505334 0.00576342 0.00217856 0.00258912 0.0149338 0.0273258 -0.0063224 0.0137602 0.0156866 0.00448617 0.0209126 0.00973217 0.000573914 0.00893554 0.00640758 4.23792e-05 0.00606731 -0.000156924 0.00635936 0.00189137 0.00217037 0.00252829 0.0108402 -0.00286704 0.00580566 0.000682268 0.0105119 -0.00527824 0.00156303 -0.00216385 -0.00310337 -0.00227189 0.00250101 0.0156026 0.00616985 0.00141815 0.00681468 0.00706456 -0.00968582 0.00465134 -0.00111893 -0.00365038 -0.00234879 -0.0078125 0.00423588 0.0161805 0.0173879 0.00685831 0.00719246 -0.00590711 -0.00132722 -0.00329197 -0.00338977
internal_weight=149494 57833.5 91660.4 77477.9 41002.2 16831.3 40676.4 36801.5 18856.6 28132.6 22145.6 14119.6 14182.4 7437.94 14359 25947.7 10853.9 6681.69 13339.7 4497.68 2711.64 17113.8 3066.9 8833.85 8805.89 6797.14 6337.71 6849.96 3850.29 4328.49 7666.65 2917.22 4371.04 8521.77 12110.4 12543.8 7509.01 3130.23 3973.32 5287.59 2390.33 16022.2 3109.92 2096.26 4427.35 4505.36 6413.68 2905.1 4749.43 9267.03 4026.38 2559.24 1936.53 2708.37 5368.87 10776.1 2770.75 4395.46 6843.95 7174.91 2882.39 3187.21 1562.37 1910.36 2843.42 2686.06 1979.8 4817.9 4126.31 3948.79 2037.6 1597.45 6743.12 1873.56 1240.81 2099.76 3845.73 1754.03 2106.24 3932.17 867.064 2415.66 11064 3999.66 3025.13 4936.64 3568 7160.79 2288.55 2008.76 1136.8 505.703 4958.17 2728.35 1170.53 1600.76 1044.96 2352.86 1517.99 1973.21 696.128 1551.83 3508.58 3629.37 1872.26 991.608 321.308 4945.84 792.885 475.794 647.389 992.117 1252.77 1095.33 1156.54 923.606 1630.41 1029.31 2445.81 617.223 972.165 882.341 1511.28 881.953 1399.92 498.996 1347.08 645.887 2238.26 1340.33 1218.56 1556.8 1595.93 860.056 544.687 422.925 930.985 680.026 773.929 4068.84 159.734 1101.17 1420.08 695.795 6118.16 580.296 605.332 461.899 510.652 352.902 1683.73 1120.06 554.539 1472.75
internal_count=1324647 495823 828824 698298 354857 140966 374462 323836 159543 260748 195314 118950 130526 61413 119929 229645 94191 57537 118406 39614 22016 152321 24971 77324 76908 60064 57851 56726 34100 37395 67047 26324 36442 75485 111484 113714 63203 25705 34277 43425 19420 149264 26867 18431 40606 39929 53625 24248 40723 85730 36391 20974 17068 23260 47079 94470 23673 38838 59319 66635 23568 27144 13301 17245 25754 24324 16945 42921 36647 34930 16472 13160 61526 15710 10737 18567 34768 15669 19065 35151 6965 21893 102713 35588 26478 45574 33327 66665 20734 16844 10114 4341 46551 22451 9507 14135 9363 20760 12747 17545 5990 13360 29377 30809 16961 8288 2596 44738 6260 3731 5514 7994 10926 9578 9900 7967 13665 8499 22268 5555 8153 7560 12543 7422 12500 4432 11349 5589 21061 12067 10528 13479 14170 7223 4747 3601 7794 5741 6341 38342 1363 10169 12149 5938 57975 4749 5166 3939 4311 3014 15963 9914 5098 12745
cat_boundaries=0 2 4 6 8 10 12 14 16 18 20 22 24
cat_threshold=2517557318 31763 2821483584 199680 13910051 10306 289964558 83486 2332389668 88141 6843184 16786 84410440 60099 1100616288 561 219485192 10520 2359312 17408 486932676 3 4069552272 198720
is_linear=0
shrinkage=0.0100667


Tree=3
num_leaves=155
num_cat=32
split_feature=13 13 13 66 66 13 66 13 13 66 13 66 66 66 13 66 13 66 66 66 67 66 67 67 66 66 67 12 66 67 67 67 67 66 13 67 67 66 66 66 66 13 67 66 66 9 35 66 66 12 66 13 66 12 12 66 67 66 66 66 12 12 12 66 13 67 66 13 66 66 35 66 66 12 35 36 67 55 67 66 66 12 67 8 12 12 67 67 67 13 66 12 13 67 13 66 12 12 66 12 67 66 8 20 66 67 8 8 38 12 66 12 28 67 21 22 12 66 12 67 66 35 55 66 12 12 67 22 44 66 12 28 12 36 36 24 66 36 9 47 35 67 66 66 67 66 28 36 44 38 37 20 12 13
split_gain=99705 17271.4 14999 3360.19 3245.81 2452.59 1535.73 1514.89 1446 1203.17 1132.12 1008.95 687.182 615.29 491.497 465.746 442.374 344.572 315.481 258.636 247.62 231.551 197.99 195.63 191.385 181.427 180.194 176.419 173.708 156.75 154.499 150.698 148.585 130.643 125.041 124.543 117.825 111.555 108.143 108.132 103.557 102.017 96.511 96.3261 95.2062 89.0232 85.3783 85.1867 84.4287 81.9906 79.6826 79.4526 77.3368 74.6047 73.5517 73.0854 117.611 72.11 69.0782 68.0867 64.8056 62.0169 60.965 60.0532 59.2885 58.5251 56.966 60.6954 54.4046 49.5931 51.9796 49.1945 46.5277 45.0375 42.6562 87.6989 42.5843 41.9351 41.6109 41.3149 40.7109 39.6427 39.2994 38.5828 38.3629 36.3621 36.0223 35.98 35.6007 34.7565 34.5538 34.4189 33.6599 33.0809 32.327 31.2643 29.528 29.2764 28.959 28.2376 27.8885 27.7216 25.6142 25.5332 24.7327 24.5261 23.4254 23.0744 22.9014 22.89 21.7374 20.6184 20.2638 20.0257 20.0255 19.945 23.3998 22.5302 19.7524 19.7474 18.777 16.8623 16.8494 16.7732 16.4701 16.2544 15.6102 15.5532 15.1318 14.1858 25.7697 14.1741 14.0454 13.7531 13.2917 13.2077 13.0206 12.7943 12.2532 12.2494 11.8633 11.3888 10.8519 10.7833 10.5702 10.3511 10.1808 10.122 9.40356 9.36458 9.00808 8.78676 6.48607 6.33795
threshold=3.5000000000000004 1.5000000000000002 9.5000000000000018 0.11443452380952382 0.11543186543186544 1.0000000180025095e-35 0.12914197937239416 17.500000000000004 2.5000000000000004 0.038610614192009549 5.5000000000000009 0.01941930618401207 0.095119047619047631 0.030457637600494747 5.5000000000000009 0.23697775366250681 2.5000000000000004 0.08314132104454687 0.22154674988224213 0.22154674988224213 0.38487525987525995 0.24443645658598931 0.5366750358680058 0.43493243641942531 0.25869630973986696 0.040678433535576396 0.54173634336677823 0 0.062432795698924737 0.47235706580366782 0.40316329082270569 0.50917508417508428 0.41185250219490782 0.24974437627811866 7.5000000000000009 0.45014619883040941 0.52642320085929117 0.16558400472434306 0.059213089209193617 0.4188596491228071 0.34514106583072107 29.500000000000004 0.4108203257550051 0.38147896406288134 1.0000000180025095e-35 1 4.5000000000000009 0.13898086828550407 0.166919959473151 2 0.079042029534267325 6.5000000000000009 0.16492103531476202 3 4 0.079042029534267325 0.34555049172463426 0.40149253731343287 0.15410428497676823 0.15009157509157511 5 6 7 0.35355392156862753 12.500000000000002 0.3273531777956557 0.027149877149877152 27.500000000000004 0.28175416133162617 0.075615813335643545 4.5000000000000009 0.074179894179894193 0.16333199946645327 8 4.5000000000000009 0.59150000000000003 0.45183384887317724 9 0.54173634336677823 0.17049859055673011 0.17574992574992579 10 0.34391801075268824 11 12 13 0.32158385093167707 0.63340395480225997 0.31150961034223312 13.500000000000002 0.14205364416870342 14 4.5000000000000009 0.2573593073593074 4.5000000000000009 0.093844696969696981 15 16 0.077041785375118729 17 0.31849492804906826 0.14009345794392528 18 75.250000000000014 0.13056693537729616 0.2730983302411874 19 20 0.78175000000000006 21 0.34227565316168124 22 82.350000000000009 0.33395989974937351 77.550000000000011 70.250000000000014 23 0.25869630973986696 24 0.5799686520376176 0.033615819209039555 6.5000000000000009 25 0.091372912801484255 26 27 0.33014288331196195 96.350000000000009 4997.5000000000009 0.27151675485008825 28 105.15000000000002 29 0.39250000000000007 0.78200000000000014 22.350000000000005 0.19752319607392074 0.39250000000000007 30 201.50000000000003 4.5000000000000009 0.2730983302411874 1.0000000180025095e-35 0.26936715766503005 0.24750912498766897 0.01941930618401207 87.750000000000014 0.62000000000000011 -9487.4999999999982 0.11285000000000002 0.63050000000000017 72.350000000000009 31 45.500000000000007
decision_type=8 10 8 10 10 10 10 10 10 8 10 8 10 8 10 10 10 10 10 10 10 10 10 10 10 8 10 9 8 10 10 10 10 10 10 10 10 10 8 10 10 10 10 10 10 9 2 10 10 9 8 10 10 9 9 8 8 10 10 10 9 9 9 10 10 8 8 10 10 10 2 10 10 9 2 2 10 1 10 10 10 9 10 9 9 9 10 10 10 8 10 9 10 10 10 10 9 9 10 9 10 10 9 8 10 10 9 9 8 9 10 9 8 8 10 8 9 10 9 10 10 2 1 10 9 9 10 10 10 10 9 10 9 2 2 8 10 2 9 8 2 10 10 10 10 10 10 2 8 10 2 8 9 10
left_child=1 5 3 11 9 28 13 12 15 44 19 -2 25 145 38 20 30 66 22 32 101 35 42 50 34 142 68 59 120 115 69 -20 52 64 49 37 143 83 124 61 60 80 131 46 -3 63 -33 139 -44 77 93 96 81 94 79 88 103 99 -29 -22 -28 -31 113 78 104 -52 -9 -68 150 70 -11 105 137 140 75 133 -64 -12 -26 -37 -19 -5 -51 -10 -54 -58 -73 -42 118 -27 -56 110 -55 -15 -34 109 123 -66 146 -38 -71 114 -93 -57 141 -53 -75 -106 -59 -32 149 -97 -100 -40 -6 117 -117 -21 -18 -74 -1 -99 -98 -16 144 -90 -103 -65 -104 152 -131 -8 -47 -49 -45 -112 -43 -24 -39 -30 -36 -14 -4 -23 -13 -7 -25 -76 -41 -35 -17 -126 -82 -69
right_child=2 4 7 10 8 6 18 17 21 16 24 14 33 23 51 26 55 41 31 29 27 36 72 98 45 89 40 58 47 39 95 43 53 91 73 54 57 138 62 148 87 136 48 134 -46 132 -48 74 -50 82 65 71 84 92 90 56 85 108 -60 -61 -62 -63 76 127 97 -67 67 153 -70 100 -72 86 119 106 147 -77 -78 -79 -80 -81 129 -83 -84 -85 -86 -87 -88 -89 125 -91 -92 102 -94 -95 -96 111 122 121 112 -101 -102 126 128 -105 107 -107 -108 -109 -110 -111 135 -113 -114 -115 -116 116 -118 -119 -120 -121 -122 -123 -124 -125 151 -127 -128 -129 -130 130 -132 -133 -134 -135 -136 -137 -138 -139 -140 -141 -142 -143 -144 -145 -146 -147 -148 -149 -150 -151 -152 -153 -154 -155
leaf_value=-0.0042537091613885315 -0.011583115441417846 -0.011651952546222873 -0.011588847038866824 0.0061259658339810332 0.018128678793639792 -0.011229163723907136 0.028032878691446949 -0.011383997079455676 0 0.0068985781966832997 0.0022862556621238914 0.0014401888833665861 -0.0018655577495653016 0.01851376824721921 -0.0019810379208321034 0.020255676437217034 0.0054433216001122534 -0.0078738994948405038 0.032301755577077484 0.012751098246246774 0.006599533452699236 0.014506143385088828 0.014612132996903671 0 0.0066486139907864479 -0.0068894260741911824 0.011908763148582495 0.010662200957886876 0.029270927097263515 0.0072280264355973197 -0.0017295887191379029 0.023732593340769451 0.0020466776996407978 0 -0.0034967856688149033 0.002613747766212266 0.011579950243188137 0.00067978513182358278 0.0029215492396113519 0.0026679400856363332 0.02964899873512053 -0.0093413142519927286 0.01932519315797919 0.032612230531604294 -0.0027594763902373128 0.00052140289074982201 0.029253383226676928 0.036386014945229042 0.023615073752927415 0.0030664665148028205 0.02416342673969642 -0.005192964718938489 0.0037202568478657489 0.0042900143159791317 0.002341280695104862 0.011517293820825444 0.003489772226337679 0.025009556458604712 0.01413900471447856 0.010548480681542566 0.01650309164916279 0.0041327835096167855 -0.00097256442020895561 0.011056404502419639 -0.0066830254472302012 0.017060353001800907 -0.0091339933746320962 -0.010045377752622452 0.028199527579811222 0.013318576875417907 0.011508347569251154 -0.0017130110921732946 0.02021760756829619 -0.003480158733721542 0.054107618973404936 0.026703522129878213 -0.0043452713654486179 -0.00040933082830011281 0.0020921617261120658 0.005690572273065588 -0.0049872488573912558 0.0025535348025402149 -0.00099699127425164334 0.0079119279942474596 0.011068861370427887 0.0010822110029741472 -0.0045523162386065926 0.019274278697259856 0.00011731615158215694 -0.0081608434869907386 0.0081074623792974608 -0.0036943949547609094 0.0021155963777702599 0.008967380406170667 3.6551997966209036e-05 0.00026370673187316884 -0.0027433354162012761 -0.0051092828690576016 0.015134651440822192 0.0078368953921187819 0.0088704678314990605 0.024454611010824703 0.0028139534120012184 0.0056190578711761132 -0.00011341942315923135 -0.0071381319219751323 -0.00072595243565241657 -0.0038917201350685323 0.0021500393654711736 0.0030231434316933541 0 0.006358496248328252 0.0088495571500501868 0.00029398852793643563 0.011764799053314085 0 0.012150400077736321 0.028089082936996239 0 0.016326442811930519 0.012182236107719438 -0.0010008475073030718 -0.0045446166979011332 0.0017615062224717168 -0.0037246428737341139 -0.0037118529417700039 0.018190247442764419 0 -0.0010134412244190609 0 -0.0060379523601928132 0.015046390761222208 -0.0039613802171490145 0.032366148657760899 0.01791143258315489 0.011258041447227746 -0.0076996257463358246 0.0067503002862620166 0.013197097395565779 0.01083256344440082 -0.0010267691667331937 -0.0055156714339639843 -0.0093495298349034056 0.020965682674259578 -0.0032139295881638682 0 0.0069459127757070674 0.0388193143247407 0.023630295607210035 -0.0041318070641881447 0.0031050063966369876 -0.0068826733649884663 -0.0071450528837514304 -0.010726022923310647
leaf_weight=9.2312992736697215 1523.5731465965509 463.94024385511875 1267.9431002363563 677.01203230023384 171.88436515629292 85.129156120121479 449.15249858796597 4035.5437397398055 66.231503903865814 2370.815623447299 1986.0127485096455 59.150957524776459 130.12149682641029 61.355573214590549 622.1965646892786 356.01199545711279 111.56953025609255 5309.0170232467353 355.34688102453947 46.759903691709042 613.88079679757357 126.24240586161613 97.116559311747551 41.590802989900112 294.41567785292864 6126.8456429950893 887.61513236910105 877.9275588542223 391.68435998260975 1212.1760946139693 159.70591405034065 2859.7964559718966 2156.0518341585994 43.105335518717766 1654.2984997108579 699.33096417784691 724.21049745380878 27.618343621492386 375.02309351414442 7.3697827234864235 60.293454691767693 5929.9897041767836 905.41920173168182 229.2502935230732 184.25665248930454 97.88775185495615 401.63319304585457 885.34009006619453 1516.4285581186414 253.03592899441719 160.95981682091951 4244.3756182491779 162.97361109405756 1962.7224014699459 134.97329548001289 178.60678215324879 1566.7272737473249 47.308650694787502 2885.5094804465771 2583.2712606415153 1659.0585873275995 2016.6451202183962 4457.7314743474126 145.43568314611912 2289.5460200458765 1750.2950501739979 6609.3022134564817 6484.6207153648138 155.41489200294018 286.82707155495882 314.61072150617838 696.25577733665705 573.56638927012682 368.22696629911661 22.875965893268585 188.11219680309296 426.06867285072803 794.55862630158663 821.11842641234398 1583.4414427876472 670.44798595458269 797.67959079891443 3835.3056374341249 1288.1157602071762 329.53034589439631 1224.6056675985456 1679.9367212876678 311.58316595852375 164.64955668896437 4428.0869702845812 1699.1586723960936 106.91121646016836 1303.3844578191638 206.3374937325716 1369.6937039494514 98.536740623414516 1488.5783416777849 3126.3129955977201 102.28720156848431 847.21632265672088 543.79674270004034 117.91720274090767 318.51041402667761 203.13187657296658 206.6049166098237 958.66129169613123 2487.747757922858 3878.6725899018347 9.5622475445270521 231.87587460130453 47.659581281244755 310.03383675962687 278.88856275379658 1601.2071067169309 156.8481415361166 30.184204652905464 222.79071523994207 25.209694765508175 165.37810265272856 404.07186962664127 13.948948569595812 131.54104253649712 1307.7041030749679 139.01910945028067 233.04321896284819 260.69636587798595 290.46531815826893 10.35254669934511 135.86431477218866 116.5426327958703 160.89422006160021 23.557006999850273 162.1542042940855 392.25183625519276 20.313034974038601 12.971056558191774 895.86601492762566 60.204668775200844 579.94643819332123 11.186196975409983 282.13095638155937 1577.8334021419287 593.66867439448833 123.92397779226303 149.66126981377602 10.920305848121641 36.488840416073799 129.40836076438427 38.728011973202229 486.54500473290682 9.0922252386808378 334.4297899082303 1197.4006625525653 6713.6663118749857
leaf_count=69 13662 4008 11576 6089 1423 700 3497 39212 566 19182 18689 536 1183 488 5834 2884 967 49648 2750 401 4765 1052 757 329 2593 55477 6927 7402 2818 10512 1301 21522 17842 408 13866 5633 6246 237 3377 59 495 59278 6985 1736 1562 888 3483 6368 11775 2159 1276 38027 1354 17363 1176 1539 13420 380 24253 20021 13691 17090 38054 1240 19883 13627 61306 62145 1251 2382 2920 6273 4411 3400 229 1125 3613 7082 7178 12796 6257 6699 32392 10884 2893 10162 14784 2446 1392 40502 14817 981 11675 1620 11454 785 13099 29215 799 6830 4431 959 2940 1715 1911 8515 22677 35025 77 1916 409 2511 2150 14353 1272 254 1897 217 1406 3030 104 1483 11130 1308 2020 2182 2368 82 1222 1092 1452 175 1409 2706 146 111 8870 452 4890 78 2709 14186 5361 1032 1362 90 280 996 316 4304 69 2825 11266 69499
internal_value=2.56741e-06 0.0134649 -0.00501797 -0.000636052 0.00904021 0.0232137 0.0212607 -0.0082046 0.0113762 0.00398949 0.00179174 -0.00369452 -0.00626882 0.0147168 -0.00305203 0.0137234 0.00503758 -0.00946828 0.0235214 0.00398123 0.0123266 0.00808586 0.0214841 0.0156344 -0.000256149 -0.00795066 0.0168375 0.0117214 0.0333492 0.00626401 0.00725965 0.0256337 0.00303817 -0.00459375 -0.000698511 0.00711199 0.0112147 0.00924179 -0.00107757 0.00557947 0.0158144 -0.0082163 0.0229332 0.0249467 -0.00918992 0.0030846 0.0244255 0.033667 0.0220289 0.000166492 0.0169183 -0.00440207 0.00549037 0.00232163 0.00608668 0.00255174 0.00320348 0.010165 0.0133039 0.00977301 0.0150301 0.0053432 -0.000667318 0.00417488 -0.0049232 0.0176809 -0.0102163 -0.00997628 0.0224917 0.00817612 0.00745451 -0.00499419 0.0177509 -0.0019472 0.0348364 0.0341257 -0.00127292 0.00150201 0.00333292 0.00474586 -0.00737199 0.00428135 -0.000733278 0.00755729 0.00902397 0.00246518 -0.0037383 0.021071 -0.000332224 -0.00742686 0.00766458 -0.00131231 0.00342484 0.0113147 0.00127425 0.00317924 -0.00312857 -0.0056888 0.00944988 0.00971261 0.0104578 0.0179843 0.000422627 0.00849036 -0.00418274 -0.00555955 -0.00110683 -0.00372087 0.0219153 0.00100897 -0.00299071 0.00515497 0.010648 0.000810077 0.015222 0.013032 0.0112463 0.0187162 0.0024039 0.0186529 0.00379875 -0.00494131 -0.0036141 -0.00122547 -0.00464804 -0.00221393 0.0201034 0.0101982 0.0015418 -0.00611002 -0.00361162 0.0274759 -0.00215931 0.0351852 0.0315865 0.00224541 -0.00913209 0.0118745 0.0129266 0.0288648 -0.00314269 -0.00526254 -0.0108976 0.0178764 -0.00161417 -0.0100418 0.0030551 0.0413961 0.0212035 -0.00372702 0.0199453 -0.00556284 -0.0064583 -0.0103948
internal_weight=149488 40608 108880 45848.2 27933.8 12674.1 10630.1 63032 19094.1 8839.76 25551.6 20296.6 24908.7 2734.25 18773 11136.8 8191.57 38123.3 7895.86 12358.9 7697.7 7957.28 4029.52 2638.2 13192.7 12416.5 3439.07 6960.59 2044.04 3599.86 4316.2 3866.34 8759.05 12492.2 11661.3 6078.82 1878.46 1961.91 7636.32 3274.92 2918.55 14280.2 2894.56 3510.99 648.197 1531.36 3261.43 2020.86 2421.85 6868.91 2178.95 11136.7 1967.2 6791.85 4116.9 3875.37 3173.07 1628.3 3763.44 3197.15 2546.67 3228.82 6860.03 1271.32 11340.6 1911.25 23843.1 19807.6 520.519 3516.05 2685.43 7579.23 1134.96 4792.4 1617.99 1465.7 4883.8 2780.57 1115.53 2282.77 7454.3 1474.69 4088.34 1354.35 492.504 2791.33 2376.19 371.877 702.294 10554.9 1834.13 1151.57 3266.11 267.693 3525.75 800.152 3557.5 5547.4 459.255 1571.43 830.624 737.115 561.286 381.739 5793.23 5203.04 2855.97 4085.28 56.8709 391.582 590.281 408.571 381.176 1976.23 328.733 324.945 252.975 71.9696 276.948 977.638 23.1802 3257.85 2796.28 761.216 776.285 425.346 408.383 155.788 454.375 2145.29 277.437 472.71 260.042 1277.59 249.563 60.6306 6825.86 157.321 607.565 402.871 1936.43 1707.95 1861.61 250.166 208.812 96.0495 78.0796 152.284 46.0978 529.65 365.104 567.473 1867.85 13198.3
internal_count=1324647 327194 997453 401251 230623 96571 82078 596202 156842 73781 222479 178772 226177 21359 165110 90226 68211 370025 60719 106115 62463 66616 31082 20569 116364 112916 27763 56441 14493 30746 35428 29637 75369 113261 102974 50999 15617 16577 66140 27977 23559 137863 22432 26887 5570 13390 25005 14320 18760 60322 17011 98970 17035 58334 34422 32783 26836 13533 31655 24786 20618 27602 59397 11093 102886 14903 232162 192950 4204 28915 22102 67599 8650 42652 11424 10199 41667 25771 9771 18429 69715 12788 34551 11450 4247 23582 21057 2941 5947 95979 15993 10375 29038 2108 29296 6513 31371 50581 3558 13076 6813 6022 5143 3254 52305 46542 26077 36936 457 3217 5232 3296 2949 17730 2695 2769 2151 618 2373 7441 173 30698 24229 7142 6743 3574 3327 1322 4162 20067 2544 3672 2297 9074 1882 520 68148 1209 5127 2896 16575 15369 16937 2084 1898 790 609 1225 375 4712 2953 4845 17523 131644
cat_boundaries=0 2 4 6 8 10 12 14 16 18 19 21 23 25 27 29 31 33 35 37 39 41 43 45 47 49 50 52 54 56 58 60 62
cat_threshold=1007962397 9457 3242731148 410018 2917840064 89356 3529270070 44081 1352419619 43763 3042212621 66624 551571523 95876 613032983 71950 1368711694 76880 3 2200065664 121129 1083548672 201124 3087808559 76993 2871663757 53973 2417280622 60796 122172424 22792 2417771112 45173 3261207728 96132 2443651369 216208 3239036299 162028 1096319232 145512 2329167872 120085 1207971885 65712 537135104 10276 2728416388 65677 1 3376943109 89480 2561417956 28744 3804776171 18680 1612842048 25912 9181472 98333 3855132955 4663
is_linear=0
shrinkage=0.0100667


Tree=4
num_leaves=155
num_cat=18
split_feature=66 66 66 11 11 44 44 44 66 66 64 66 44 11 66 1 44 44 44 11 46 1 66 66 66 37 66 44 44 11 1 46 64 44 64 37 2 11 27 66 11 1 27 27 44 15 26 38 1 11 1 38 63 38 1 37 63 27 66 19 15 1 64 47 11 44 26 64 27 11 28 44 27 44 1 11 1 38 64 1 19 66 11 47 66 66 20 63 27 27 11 22 66 20 44 1 66 66 47 20 38 27 38 66 33 38 27 66 11 16 2 8 11 62 33 46 27 46 16 66 66 8 1 44 20 22 38 20 66 44 27 38 20 27 66 66 16 1 66 66 44 2 19 66 27 15 44 46 8 20 11 38 22 55
split_gain=42197.4 6919.62 4549.94 2949.69 1667.72 1536.46 1305.36 1294.25 1132.31 1057.18 701.865 701.638 684.761 743.377 502.366 499.625 487.643 416.057 400.447 378.692 345.057 300.003 297.525 295.126 265.159 234.121 233.527 194.696 177.203 173.409 183.624 172.349 169.63 166.973 151.626 151.49 149.4 148.749 148.294 145.849 133.433 129.311 137.49 128.693 111.209 110.577 110.784 109.335 111.461 104.381 98.214 94.8849 94.5841 93.0509 91.7221 91.5691 86.3408 85.5061 85.2711 84.9081 84.0062 80.8795 80.7998 77.9326 78.2489 76.1032 75.0828 74.1959 72.8932 72.1554 72.1172 70.7595 67.5189 66.8129 70.3969 65.993 65.256 64.6206 59.6588 59.14 68.3475 57.8179 56.6275 56.4773 56.0359 55.517 54.6022 52.8499 52.7742 52.2897 52.0273 51.8636 51.1196 50.914 50.2021 49.4602 47.1914 46.9052 46.5496 44.9521 43.9673 43.6878 43.068 42.4545 41.7489 41.1303 40.5264 40.2896 39.9491 39.2422 39.0513 38.1471 38.1208 37.2711 36.5089 36.421 36.3666 36.0795 35.9469 35.9094 35.4722 35.3001 34.9412 34.7626 33.7631 32.9804 32.8561 32.8351 32.7381 31.9987 31.496 31.0494 29.8946 29.644 29.5669 28.6963 28.4768 28.3269 27.4426 27.1788 27.0845 26.3204 25.3834 24.3048 23.7791 23.7335 23.6438 22.2675 21.9957 21.9317 20.9419 28.0649 20.3212 18.5892
threshold=0.147197123363452 0.23697775366250681 0.055749805749805752 4.5000000000000009 3.5000000000000004 405.00000000000006 104.50000000000001 -1097.4999999999998 0.095119047619047631 0.32830124188219217 0.10316876083084335 0.11077943615257049 3000.5000000000005 3.5000000000000004 0.02339261285909713 0 -1596.4999999999998 -1097.4999999999998 -2098.9999999999995 3.5000000000000004 8.5000000000000018 1 0.10542661000326906 0.19398462234283134 0.19959349593495937 0.11800000000000001 0.4188596491228071 7005.0000000000009 1001.0000000000001 2.5000000000000004 2 6.5000000000000009 0.14082289508531173 -1198.9999999999998 0.11959569280780173 0.16050000000000003 16025.000000000002 2.5000000000000004 83.550000000000011 0.18849732834139074 2.5000000000000004 3 77.050000000000011 78.450000000000017 -194.99999999999997 1.0000000180025095e-35 84.850000000000009 0.63875000000000015 4 5.5000000000000009 5 0.60235000000000005 0.50063102788655145 0.50975000000000015 6 0.13400000000000004 0.44423255051477756 64.350000000000009 0.18849732834139074 88.65000000000002 1.0000000180025095e-35 7 0.05177670311185871 72.500000000000014 2.5000000000000004 31525.000000000004 78.250000000000014 0.16462358160822846 79.050000000000011 5.5000000000000009 82.750000000000014 8016.0000000000009 74.450000000000017 4715.0000000000009 8 3.5000000000000004 9 0.65745000000000009 0.11559989484588351 10 72.65000000000002 0.27806414662084772 4.5000000000000009 122.50000000000001 0.062895569620253181 0.093844696969696981 68.850000000000009 0.43961221476323947 73.15000000000002 74.350000000000009 5.5000000000000009 87.250000000000014 0.081725417439703171 73.450000000000017 33021.000000000007 11 0.19959349593495937 0.058481532147742828 60.500000000000007 90.65000000000002 0.36435000000000006 80.850000000000009 0.40085000000000004 0.12254524451289951 2.5000000000000004 0.56715000000000015 69.750000000000014 0.20977698128235764 1.5000000000000002 1.0000000180025095e-35 11711.000000000002 12 5.5000000000000009 0.10599583885000947 2.5000000000000004 6.5000000000000009 66.550000000000011 7.5000000000000009 1.0000000180025095e-35 0.35355392156862753 0.26095687096210934 13 14 27015.000000000004 68.250000000000014 86.050000000000011 0.40085000000000004 72.050000000000011 0.20977698128235764 8016.0000000000009 76.350000000000009 0.32145000000000007 83.750000000000014 81.15000000000002 0.086347131445170672 0.26536911060720592 1.0000000180025095e-35 15 0.17574992574992579 0.1715728715728716 8016.0000000000009 38740.000000000007 103.25000000000001 0.16648189209164821 74.250000000000014 1.0000000180025095e-35 2995.5000000000005 7.5000000000000009 16 72.65000000000002 3.5000000000000004 0.58035000000000014 70.450000000000017 17
decision_type=10 10 8 8 8 10 10 8 10 10 10 10 10 8 10 9 8 8 8 8 2 9 10 10 10 2 10 10 10 10 9 2 8 8 8 2 2 10 10 10 10 9 10 10 10 2 10 8 9 10 9 10 10 10 9 2 10 10 10 8 2 9 8 10 10 10 10 10 10 10 10 10 10 10 9 8 9 8 10 9 10 10 8 10 10 8 8 10 10 10 8 10 10 8 10 9 10 10 10 10 10 10 10 10 2 10 10 10 10 2 2 9 8 10 2 2 10 2 2 10 10 9 9 10 8 10 10 8 10 10 8 10 8 10 10 10 2 9 10 10 10 2 8 10 10 2 10 2 9 8 8 10 10 1
left_child=2 4 14 6 5 15 11 24 10 12 33 19 13 20 -1 37 36 47 56 21 45 40 34 63 35 39 28 41 31 30 116 150 -23 62 73 57 72 70 111 82 -4 136 107 95 78 109 -47 48 66 96 106 81 71 103 55 69 77 145 -44 110 -59 132 -5 64 -17 91 -10 113 120 -26 143 -36 -15 74 -8 108 118 -12 -21 80 -37 -18 122 -61 87 -58 -33 -35 -50 -57 -63 148 -64 -30 102 -14 140 -54 -32 -67 -78 -52 -40 -19 -38 141 -24 -43 -16 -3 -25 -29 -55 -20 -70 -72 -13 -108 -31 -88 -22 -97 -9 -95 -49 -56 -93 -84 -51 147 -98 -69 -41 -75 -46 -53 -7 -126 -113 -96 -27 -39 -101 -2 -114 -6 -110 -28 -45 -105 151 -11 -138 -103
right_child=1 9 3 8 7 27 22 25 17 26 18 29 43 16 75 23 51 53 67 44 68 32 50 59 54 49 129 38 93 76 98 86 -34 84 52 79 104 105 94 61 -42 42 58 65 134 46 -48 124 88 128 101 135 97 112 125 89 85 60 -60 83 -62 90 92 -65 -66 99 -68 131 114 -71 115 -73 -74 133 -76 -77 100 -79 -80 -81 -82 -83 127 -85 -86 -87 119 -89 -90 -91 -92 126 -94 123 139 121 130 -99 -100 142 -102 153 -104 149 -106 -107 117 -109 146 -111 -112 138 144 -115 -116 -117 -118 -119 -120 -121 -122 -123 -124 -125 137 -127 -128 -129 -130 -131 -132 -133 -134 -135 -136 -137 152 -139 -140 -141 -142 -143 -144 -145 -146 -147 -148 -149 -150 -151 -152 -153 -154 -155
leaf_value=-0.01139571223334763 0.0091768901993682494 0.013688992939330602 0.0057039191429674903 -0.0085115448188623002 0.0031349517749147795 0.0057568884927478381 -0.0011323860234289389 -0.00073876233288761213 0.0018426030582950025 0.01856066561509356 -0.0015922718574245666 0.0056410706181516468 0.0058761311942259406 0.012302673322658704 -0.0086476848592697553 0.0077630006962419278 0.0064613321330921469 -0.0040619445555442378 -0.0073548793930923997 -0.0028436659339871446 0.013710328860249359 -0.0016165673381249156 -0.002144605573792765 0.0098763548254635555 0.013765436986182209 -0.00023554261229833418 0.024039847610084219 0.0031060795760253332 0.0053394375080164404 0.0028745596577955091 0.0043672182879570393 0.014308404813421459 0.0016359148857153657 -0.0092232294308427325 -0.0023793590481301177 -0.0012456049236426005 0.0082805055777570215 0.014084995203598658 0.008583846419053659 -0.0014695814979606898 0.0010954990518723274 0.00081649843719162885 0.0036283398340034539 -0.00063458383026616569 -0.0050782091233949516 0.008468256619695894 0.013395493989445256 -0.004074395501805007 -0.0022802823767643881 -0.0033236520888690934 -0.0045053998370884257 0.0016820065336576422 0.003190322107754062 -0.0037596733598046247 0.0031645799503264866 0.0039429450510369861 -0.0036154402954336842 0.00907290607011421 0.0074376020851416851 0.011535396169387086 0.0051518549459029445 0.0059250719760736929 -0.0059308068992427873 0.0018841075466735661 0.0048813092351150666 0.0021172235427345592 0.0093879307150150897 -0.0020743860601638137 0.017866091340725268 0.0086453325670664757 0.013529559229108904 -0.0051943407909939929 0.017362010595218868 -0.0073668770291759281 -0.0051910471193125406 -0.0082148788072754896 0.0037833713689422888 -0.0045851633566458281 0.00018386793632263487 -0.00021301956583377773 0.0040338207961446576 0.0099566122607712727 -0.0019811491100935039 0.0046433893762185107 -0.0071249301188074012 0.0020912462288614282 0.019326059297824077 -0.0065843101552896695 0.00093094986451937745 0.0086374404412154077 0.002931092549968697 0.014803234667445273 -0.002459348355066194 0.014650055699985705 -0.0013181427517883742 0.0060691450962762766 0 -0.0046706785288069385 -0.00032815354042670011 0.013027706628472965 0.00053001464194610021 0.0001779378190870937 0.0037653663736639475 -0.0038658740445445604 0.01186427635170231 0.0083816602544477155 -0.00043831653247741059 0.0046284014574230455 -0.004300507796972745 0.018762861722817353 0.0058155697701927156 -0.0024189966904470785 -0.0067913220817701842 -0.0056456215528411166 0.02469442350602017 0.020983611437563703 0.012688490712110414 0.0024463743144546649 0.0081389805053799797 0.024224218461670239 0.019318746201040918 -5.6712210250344616e-05 0.0037520717701370518 0.0068605227292892123 -0.00033624170660204931 0.0078512900193991979 0.0095898727596281652 0.00035442057371650381 -0.00018859779807792269 0.013442977672714167 0.0035344898587909269 -0.004982614192087665 0.0026051584266840234 -0.0048249400058675484 -0.0023809126885526075 0.0055869723246047874 0.0049346437996775992 -0.0040296750949442139 0.0001641968175422076 0.0029835444288421652 -0.0036058497963563849 0.0077597190817169787 0.0048587711817137383 0.014907416302243928 -0.0045283482395437214 -0.0015881900500512979 -0.0076415980852048513 0.032149544991515046 0.0074411173763326314 -0.0012341351732087051 0.012127568057795695 0.011541499570508786 0.012861564579783394 -0.0025387826625067845
leaf_weight=7316.8305888734758 144.17995956540108 355.2368850633502 1212.6140261627734 1228.3307732790709 405.52092892676592 158.236766025424 575.05587036907673 217.2313098013401 370.67846445739269 261.96261715888977 2005.9021474868059 124.36017031222582 474.15176352113485 565.06151071190834 458.61851949989796 2819.601884316653 1338.9900967478752 1977.9226815402508 2543.378040663898 1501.9000571891665 274.54612983763218 5694.5030092522502 627.86237231642008 513.9940601810813 531.84616454690695 1699.8585165329278 191.28655159473419 287.56909930706024 119.76670854538679 426.01283886283636 1768.8828952908516 143.91979002207518 2263.0008791014552 6984.0542163960636 2321.6096704602242 278.11029738932848 663.82308349013329 432.03717719763517 310.63973300158978 440.05670768022537 1399.6374065801501 1208.5146068483591 1230.9323417320848 32.90878900885582 2044.9720214530826 619.57685413211584 2769.9531259983778 670.71996281296015 779.09200190007687 1816.8561267405748 1000.315325461328 398.6738713234663 338.25971359014511 1267.9946554414928 558.70108130574226 467.38186604529619 224.00280206650496 856.58599459379911 1283.3700689598918 2500.2879680097103 1886.5177308768034 955.37933634966612 3351.509086959064 391.72398597002029 1607.7012232802808 316.47377108037472 226.90397574007511 643.63900844752789 178.70634105801582 766.05252157151699 127.64621770381927 1587.6521628424525 726.31584953516722 2055.0291705206037 2686.4128933437169 4714.5301379151642 521.56627676635981 1215.9472843036056 1131.4799037948251 650.44203399121761 1674.4489790573716 889.54611328989267 784.59924547374249 148.87704034894705 2736.0066706165671 720.61602565646172 432.00723105669022 1004.1636305972934 1541.1152921356261 617.92380052059889 1815.2112031280994 233.86561912298203 544.53150836378336 419.57863115519285 194.12101688235998 109.10008554160595 441.74269980192184 96.351890563964844 224.44536133855581 83.850759498775005 2445.7746946588159 395.32730799168348 627.17420569807291 452.71282008290291 998.51633854210377 497.60624841600657 955.16327819228172 383.71356290578842 1176.5389055535197 512.46459326148033 613.66788176447153 654.89827001839876 1640.8601389862597 3531.2173163220286 370.01351165771484 384.52823725342751 368.82827962189913 784.30734673887491 221.96106592565775 490.42391998320818 385.83992363512516 421.07559561729431 686.64908455312252 93.851812839508057 987.39629448950291 244.50663708150387 486.85001619905233 2689.246154345572 450.59284041076899 32.231828443706036 553.68885777145624 1143.2433589696884 308.97145260125399 756.92406473308802 600.59125150367618 452.05751617252827 58.50192902982235 271.94499848037958 1071.7556206509471 511.19254493713379 289.20857036113739 119.86100727319717 119.05120512098074 469.24412283301353 874.88212705403566 133.54007238894701 322.42685496807098 108.86588127911091 567.88776589930058 1432.463952600956 356.53492519259453 127.91710475087166 282.23588958382607 604.21471809595823
leaf_count=69000 1250 2658 10958 11566 3718 1428 5334 1857 3477 1677 18195 1117 4190 4806 4057 23238 11670 18413 24045 13400 2875 49789 5766 4276 4469 14851 1308 2559 994 3831 14887 1317 19175 66903 20269 2582 5313 3770 2593 3706 12824 10268 10015 269 18496 4662 20184 6185 7066 16617 8791 3447 2889 11353 4628 4157 1996 7529 10252 20123 15791 8328 31012 3260 13399 2776 2063 5996 1856 6598 835 14604 5875 18972 23588 43981 4535 11218 9891 5474 14581 7656 7266 1227 25584 6280 3880 9284 13219 5145 16545 1873 4915 3310 1726 908 3873 837 1909 711 21025 3377 5219 4232 8501 4361 7045 3218 10533 3803 5069 5885 15523 33260 3795 3585 3241 8023 1982 4311 3994 3600 6061 798 8772 1948 3928 24377 4062 259 4732 10494 2577 6771 5324 3873 510 2307 9410 4453 2660 1103 1005 4019 7900 1182 2955 1029 4722 13204 2313 820 2492 5186
internal_value=2.55787e-06 0.00668436 -0.00427895 -0.00331982 0.00444988 0.0066382 -0.00125421 0.00257349 -0.00519833 0.0120655 -0.00632815 0.000301384 0.0109569 0.0120553 -0.00956254 0.00914561 0.00959867 -0.00267422 -0.00448613 -0.000813223 0.0147587 0.000282798 -0.00356667 0.00800715 0.00549902 0.000551957 0.0177738 0.00336454 0.0166487 0.00320341 0.00525855 0.0182947 -0.000685391 -0.00772343 -0.00449307 0.00421693 0.0125379 0.0135261 0.00161281 0.00164952 0.00323866 0.00474639 0.00410589 0.0065025 -0.0030158 0.013379 0.0125074 -0.000357471 0.000861593 -0.00109033 -0.00134712 0.00676544 -0.00303513 -0.00413738 0.00785362 0.0088801 -0.00194764 0.00566474 0.00558964 0.0101424 0.00639181 0.00317707 -0.00619716 0.00634143 0.00672619 0.00810211 0.00470025 -0.00582607 0.0195814 0.0107763 0.0162065 -0.0035335 0.0151812 -0.00552881 -0.00450789 -0.00754584 0.00177815 -0.00273504 -0.00152665 0.00237499 0.00324342 0.00787564 0.000411655 0.0111642 -0.00844876 0.000692875 0.0209815 -0.00889684 -0.000128417 0.00665505 0.00396458 0.00941825 -0.00545656 0.0118691 0.00385846 0.00352807 0.000133095 0.00134951 0.0037981 0.00467121 0.00111247 -0.00298233 0.00540688 -0.00301246 0.0104588 0.0107397 2.87319e-05 0.0017619 -0.0059128 0.0167348 0.00770429 -0.000197952 -0.00527464 -0.00636829 0.0225483 0.0192091 0.0107793 0.000837862 0.00467155 0.0219765 0.0170517 0.00121402 0.00265898 0.0133092 -0.00222248 0.00458722 0.0113407 -0.000160823 -0.00271944 0.025925 0.00193452 -0.00395891 0.000152314 -0.00669779 -0.00448198 0.0038071 0.00965642 -0.00120232 -0.000786345 0.00173919 -0.000747007 0.0127885 0.00844471 0.01363 -0.00602128 0.00188585 -0.00504761 0.0271233 0.00704114 -0.00188874 0.0143991 0.0163671 0.0116257 -0.00144529
internal_weight=149473 58377.6 91095.2 77106.2 41254.7 19033.8 36735 22220.9 40371.2 17122.9 27876.5 21950.5 14344.5 11499.3 13988.9 10771 6032.98 12494.7 12027.9 15848.7 5466.34 10569.8 14784.5 8595.85 9071.58 13149.3 2778.35 8262.86 2445.96 6101.83 2486.52 1812.77 7957.5 15848.6 10417.3 5885.17 2953.72 2175.1 3657.35 7897.34 2612.25 4605.51 4106.53 2845.22 5278.94 4257.23 3389.53 4847.85 2917.79 5251.95 4367.19 3079.27 4343.87 7646.84 3186.41 2383.2 4166.47 3282.16 2514.3 3776.83 2743.1 3519.62 5124.37 4819.03 4427.3 1840.89 597.582 7861.48 1209.11 1297.9 1125.6 3909.26 1291.38 6073.42 3261.47 6672.11 3615.31 3221.85 2633.38 2603 1952.56 2228.54 4377.73 2649.17 10724.2 944.619 1066.35 7988.22 2320.21 1085.31 2770.59 1321.51 3896.04 633.197 1643.13 1004.33 2984.5 434.612 1993.33 519.376 2967.34 1999.86 937.814 3863.1 1662.34 1049.5 2367.33 1592.23 1957.58 867.701 1127.66 2014.22 3783.74 6074.6 548.72 512.174 493.188 1739.47 647.974 922.431 660.386 530.176 903.88 513.43 1930.06 803.208 720.716 3473.85 2267.45 332.384 995.432 1786.88 749.028 2811.95 2645.56 850.731 498.975 1259.34 1726.65 705.314 1989.07 551.898 202.902 613.424 2515.74 539.061 1498.97 300.152 600.797 1885.18 746.415 389.88 340.738 999.542
internal_count=1324647 495823 828824 698298 354857 159543 323836 195314 374462 140966 260748 192384 118950 94968 130526 89515 51141 113714 111484 139857 43827 92746 131452 70592 77802 117512 22016 70028 19420 52527 21154 14318 68964 149264 93264 50857 24495 18923 31845 70717 23782 38183 33753 23982 47111 31307 24846 43089 25825 46795 38188 26646 38599 70625 26945 20369 37689 28220 20267 30695 23320 31156 47493 39897 36637 15284 5540 73795 12520 11067 9689 34873 10681 54665 28922 61526 31373 29413 23291 22637 17163 19326 39561 21350 101771 8276 9508 76187 20285 9302 24873 10792 35927 5102 13991 8698 26116 3726 16796 4492 25560 17354 7812 35849 13814 9234 20834 13486 17545 6461 9345 17854 34776 57305 5651 4420 4358 15068 5813 8191 6869 4508 7918 4108 17264 6576 5801 31643 20679 2596 8605 16490 6283 25743 23820 7320 4430 11079 15295 6179 17511 4873 1716 5269 23423 4900 13488 2337 4991 17436 4810 2497 3002 8563
cat_boundaries=0 1 2 3 4 5 6 7 8 9 10 11 12 14 16 17 18 20 21
cat_threshold=384 789440 384 384 128 264648 392 290851 4992 128 262536 524680 56324112 67377 35727481 27521 135235 456 67371400 2116 8
is_linear=0
shrinkage=0.0100667


Tree=5
num_leaves=155
num_cat=16
split_feature=66 66 66 11 11 66 1 64 66 66 66 66 66 66 1 33 11 64 11 1 1 1 20 66 1 21 66 11 64 46 33 38 38 62 33 1 15 11 20 46 33 41 38 21 26 46 20 64 28 21 38 32 54 20 64 66 21 66 26 66 62 26 46 11 41 21 40 11 1 38 38 20 19 2 20 15 32 2 21 21 54 21 23 2 20 11 26 21 19 32 26 41 11 11 2 1 22 46 20 40 26 62 38 28 46 26 33 66 38 54 36 14 21 47 2 8 46 40 32 21 62 21 20 8 11 2 41 1 46 38 38 38 22 8 21 54 1 39 23 38 66 21 40 66 46 41 40 33 8 40 2 8 26 38
split_gain=41681.2 7389.97 4183.89 2556.86 1724.05 1041.81 1007.85 863.333 827.678 660.364 518.938 418.642 417.818 406.097 402.364 362.429 371.886 339.818 294.63 285.928 285.564 280.865 244.442 213.054 211.928 208.409 202.641 171.932 159.135 159.107 155.972 155.702 146.56 133.698 131.609 126.71 124.35 129.456 122.999 120.607 120.102 119.74 117.079 104.553 102.972 101.596 100.712 100.385 99.226 98.9618 97.2104 87.7902 87.616 85.7305 85.491 84.293 83.8124 82.7734 82.2019 80.1386 85.4859 78.4913 77.907 77.3119 76.9071 74.9037 71.9699 71.2432 69.3671 68.7773 68.2439 66.7926 64.9761 75.0905 62.9075 61.6924 61.6577 61.4257 60.7951 55.2679 54.6352 50.9958 48.9399 48.8687 46.9655 45.8452 45.6602 45.4719 45.2594 43.5151 43.1827 42.9645 42.6418 42.6009 42.2804 42.047 41.9567 41.7106 41.6692 40.5575 40.2049 39.558 38.3655 37.813 37.0592 36.2987 35.9265 35.8164 35.4826 34.9221 34.8971 34.6469 34.1168 33.6536 33.2945 32.5377 32.2387 32.0834 32.0612 31.6057 31.3143 30.9839 30.6147 30.0746 30.0282 29.7198 29.4365 43.0185 29.3941 29.3622 28.4666 27.2191 26.9935 26.8382 26.1729 24.9565 24.7314 23.8016 23.6169 23.4794 23.3019 22.9907 22.9414 22.8117 22.3273 21.7548 21.7006 20.4951 28.0087 20.4387 20.3309 20.2525 20.0382 19.7367
threshold=0.14009345794392528 0.23543552036199097 0.05277081592871067 4.5000000000000009 3.5000000000000004 0.29142400745449104 0 0.092597666159310005 0.10361093038386469 0.1816498316498317 0.17049859055673011 0.071175278622087154 0.01941930618401207 0.35355392156862753 1 2.5000000000000004 4.5000000000000009 0.1319971305595409 2.5000000000000004 2 3 4 87.65000000000002 0.11330480451274073 5 82.850000000000009 0.10177338355304459 2.5000000000000004 0.14426644284689027 7.5000000000000009 2.5000000000000004 0.44965000000000005 0.47805000000000003 0.18884521670173376 3.5000000000000004 6 1.0000000180025095e-35 2.5000000000000004 72.450000000000017 8.5000000000000018 4.5000000000000009 1.0000000180025095e-35 0.68215000000000015 67.250000000000014 88.050000000000011 6.5000000000000009 70.350000000000009 0.050587213818946215 79.350000000000009 65.450000000000017 0.53685000000000016 0.030776515151515155 0.70900537634408611 63.95000000000001 0.054470469554012711 0.11443452380952382 67.050000000000011 0.212453007518797 87.65000000000002 0.095389748255990309 0.15595085151927027 85.65000000000002 7.5000000000000009 2.5000000000000004 1.0000000180025095e-35 77.950000000000017 4.1950000000000012 1.5000000000000002 7 0.55015000000000014 0.60905000000000009 69.450000000000017 77.550000000000011 21318.000000000004 74.750000000000014 1.5000000000000002 0.052911534154535277 19207.500000000004 82.65000000000002 80.950000000000017 0.3306010928961749 76.450000000000017 16.500000000000004 75100.000000000015 76.350000000000009 4.5000000000000009 79.450000000000017 71.450000000000017 81.950000000000017 0.46291208791208799 80.65000000000002 1.0000000180025095e-35 1.5000000000000002 1.5000000000000002 30005.000000000004 8 85.550000000000011 5.5000000000000009 65.350000000000009 3.7150000000000003 84.050000000000011 0.12720854240071613 0.43745000000000006 75.950000000000017 6.5000000000000009 79.65000000000002 2.5000000000000004 0.4188596491228071 0.59095000000000009 0.58643678160919543 0.75950000000000017 7.5000000000000009 79.250000000000014 17.500000000000004 75100.000000000015 9 7.5000000000000009 3.0850000000000004 0.057831661092530663 72.550000000000011 0.13311535595166832 70.450000000000017 68.850000000000009 10 2.5000000000000004 79250.000000000015 1.0000000180025095e-35 11 3.5000000000000004 0.6896500000000001 0.84395000000000009 0.72525000000000006 84.450000000000017 12 70.450000000000017 0.41728855721393038 13 -1.5349999999999999 43.500000000000007 0.59095000000000009 0.20517604286261007 80.850000000000009 2.9250000000000003 0.11669909208819716 4.5000000000000009 0.075000000000000025 0.62500000000000011 1.5000000000000002 14 1.2550000000000001 12106.500000000002 15 81.65000000000002 0.53685000000000016
decision_type=10 10 8 8 8 10 9 10 10 10 10 10 10 10 9 2 8 8 10 9 9 9 8 10 9 8 8 10 10 2 2 8 8 8 2 9 2 10 8 2 2 8 10 10 10 2 8 10 10 8 8 2 2 10 8 10 8 10 10 8 8 8 2 8 8 8 10 10 9 10 10 8 8 2 8 2 2 2 8 10 2 8 10 2 8 8 10 8 8 2 10 10 10 10 2 9 10 2 8 8 10 8 8 10 2 10 2 10 10 2 2 2 8 10 2 9 2 8 2 10 10 10 8 9 10 2 10 9 2 10 10 10 8 9 8 2 9 10 8 10 10 10 10 10 2 10 10 2 9 10 2 9 8 8
left_child=2 4 12 8 6 15 27 11 14 24 40 54 -1 29 18 25 39 35 77 38 36 31 58 28 32 135 -19 48 43 87 128 74 51 -28 52 47 37 90 67 61 44 102 71 120 152 -40 95 -16 133 123 110 53 114 -6 -5 91 -36 -51 -21 -30 -61 93 107 99 112 92 -24 -12 -45 126 104 -20 149 131 75 -11 -76 103 -22 108 137 -79 -48 -81 -37 -14 -41 106 -39 -46 -10 -13 -42 -17 144 -34 -58 -63 -52 125 -82 -56 151 -4 -50 -44 -7 -32 -43 134 145 -101 -26 -67 -31 -65 -75 -96 -111 -71 -9 -53 130 -33 -88 -27 150 -128 -15 -117 -64 -74 -130 -2 -66 -3 -121 -38 -100 -93 -135 -112 143 -80 -89 -18 -72 148 -137 -29 -25 -23 -8 -57
right_child=1 5 3 7 9 13 10 23 20 21 19 55 85 30 17 16 50 26 42 22 78 41 66 69 64 63 33 72 59 34 62 49 46 -35 56 84 80 88 45 86 65 79 105 68 89 -47 82 -49 70 57 98 121 -54 -55 101 153 96 -59 -60 60 -62 97 122 115 109 113 -68 -69 -70 119 146 -73 73 116 76 -77 -78 81 142 83 100 -83 -84 -85 -86 -87 124 94 -90 -91 -92 139 -94 -95 117 -97 -98 -99 138 111 -102 -103 -104 -105 -106 -107 -108 -109 -110 118 141 -113 -114 -115 -116 129 -118 -119 -120 136 -122 -123 -124 -125 -126 -127 127 -129 132 -131 -132 -133 -134 140 -136 147 -138 -139 -140 -141 -142 -143 -144 -145 -146 -147 -148 -149 -150 -151 -152 -153 -154 -155
leaf_value=-0.011470585132105939 0.00117920977023012 0.0014722216316604279 0.0024498585647922846 -0.0094055763619454794 0.00084810753751551633 0.0024602370862612331 -0.0027604729109785842 -0.0069200156201420912 0.004556597525014772 0.0073177345275824935 0.0026680178070269261 -0.0060074100616678639 -0.0067253275879498161 0 -0.0064611498865729325 0.0053685681970142268 0.010115583900200949 -0.0040599050362087599 -0.0023780649231287653 0.0014738720653769276 -0.0031138668198525841 -0.002785622600673878 0.007362685008735801 -0.00013913993111864617 -0.0042355065367604625 0.010904739785527843 -0.00078312158836982824 0.0014256162798423114 -0.0055508604666165339 0.011322331488249293 0.017642703001505621 0.0074419784747228376 0.00039654008080458727 0.0047789601428625461 0.010952381181947564 -0.0071064254278303237 0.002014926052431329 0.00053464239554236958 0.0069568905610650177 0.012220788653114698 0.00027404414998249781 0.0030917109702790647 -0.0052238015203098067 -0.0017500122878691792 0.0022793343672948834 0.010295378145561758 0.0025180670063779339 -0.0030534504519321732 0.012529410589758998 0.0039349306292339086 0.0028703215428690261 0.00011277924819991269 0.017833655646937435 0.0088604345980920676 -0.0080043227880272211 0 0.017766542510931255 0.0069951567891466167 0.0045801119436693323 -0.003350689088029045 -4.9124188526172117e-05 0.0097625174561485183 0.019630399884286366 -0.00025499596690207527 -0.0029597217706272888 0.008772792232600168 0.014000446814822782 0.0074881232717487946 -0.0048464215121382832 -0.004700797454742757 0.0016958217049572934 0.00094759493040156412 0.014870295316402509 0.0050573556289855645 0.015371590471800565 0.0011982888458309054 0.0083061368172582112 -0.0012440099956901793 -0.0031543175673743283 0.0064705269463489999 -0.00037244803465297531 0.0035110270734101589 0 0.0010669344907561411 -0.0047891696802974315 -0.0086097804730344892 0.019493162642938471 0.0074393594775780964 0.0039759500847151418 0.0065882554817834225 0.0092972425194999576 -0.0017157808502232244 0.0041320381897332744 0.01074436837327996 0.0082505896331073157 -0.0025992053680776246 0.023339826757720995 0.013839165254698724 0.0078077958068338829 0.016970733391723489 0.0021765846695670703 -0.0061381038029853447 -0.0011589850091585636 0.0068944251893966 0.018968192663025366 -0.0018424539655311348 0.010179774920185654 0.024570309173760043 0.00014261280182083829 0.007964247281709913 0 0.0074112365701929179 -0.0012418133793540233 0.0050231092154953885 0.0032541724562486236 0.008349666369523074 0.0098547502888392327 0.013177106669173095 0.0010787429531031144 -0.0011611699197080834 -0.0050792921520139405 0.0032983983084032224 0.026638855016686176 0.00070200558422183628 0.014788303379917893 0.0063296677803474245 0.0047175859116499299 -0.00079568556909200439 0.011656421790361235 0.003339748078570696 0 0.0076215759086535936 0.017293968241226084 0.0098981934306502026 -9.6663701653823631e-05 0.0079726544546490988 -0.0045147495680989665 -0.0029048640758835838 0 -0.0049090824705180867 0.015029329434078214 0.011322282455059758 0.0016409291782430899 -3.3417202780407424e-05 0.01378092300684336 0.013772059193523398 0.012387387474626499 0.005541156374546519 -0.00058454906870040112 0.0067313076692711608 -0.0024489257870776247 0.0029669765344327763 3.57131168115543e-05 -0.0030683031950059871
